tree
version=v3
num_class=1
num_tree_per_iteration=1
label_index=0
max_feature_idx=10
objective=binary sigmoid:1
feature_names=Column_0 Column_1 Column_2 Column_3 Column_4 Column_5 Column_6 Column_7 Column_8 Column_9 Column_10
feature_infos=[0:81] [0:1] [0:1] [-29.666666666666668:33] [1:33] [0:1] [-21:18.5] [0:1] [0:1] [-33.5:33] [1:33]
tree_sizes=6761 6720 6732 6721 6739 6743 6749 6751 6718 6750 6748 6735 6742 6774 6758 6771 6743 6735 6743 6738 6760 6753 6744 6782 6737 6743 6734 6741 6759 6749 6756 6751 6738 6752 6735 6757 6724 6753 6749 6741 6727 6736 6776 6757 6744 6727 6763 6719 6764 6737 6733 6744 6710 6770 6733 6755 6738 6739 6738 6725 6742 6746 6743 6718 6724 6719 6771 6721 6745 6737 6760 6752 6724 6724 6729 6730 6715 6721 6716 6725 6723 6724 6735 6712 6708 6750 6751 6703 6717 6725 6723 6710 6731 6716

Tree=0
num_leaves=63
num_cat=0
split_feature=1 7 6 6 1 3 4 6 3 7 1 7 2 6 7 6 7 4 7 3 4 4 3 4 8 3 2 10 2 2 10 6 6 3 0 2 0 3 1 2 4 1 2 3 6 8 10 0 7 3 2 1 4 3 8 1 3 6 7 7 4 8
split_gain=107.358 44.2781 39.451 30.3399 27.6515 23.1386 21.7397 21.4298 42.2091 28.2364 26.3621 23.0675 22.3153 20.8093 19.8845 27.5353 17.8823 16.9735 16.5429 15.9534 15.3916 13.5611 14.7914 13.1286 12.2491 11.9511 12.9185 11.6273 10.9794 10.871 10.468 14.1767 9.74867 9.38982 8.90565 10.5961 9.91697 8.84234 9.21691 8.45478 8.44922 8.23331 8.00156 7.99737 8.5339 7.95217 7.37049 7.32353 7.16733 7.11515 7.54518 7.09933 6.80115 6.62864 6.97902 6.59929 6.53627 13.2744 6.46703 6.46194 6.40141 6.58191
threshold=0.045983086680761058 0.032795698924731158 3.7500000000000004 -6.2499999999999991 0.10300618921308571 -0.13457147874956013 11.091608391608395 -2.2499999999999996 -0.30409436501873527 0.43650793650793651 0.25657894736842107 0.13100686498855832 0.66458333333333341 6.2500000000000009 0.069366479550922219 -1.2499999999999998 0.10762548262548262 9.0734501347708925 0.043015726179463455 0.25405889078657934 9.3791891891891925 10.319090909090912 -0.24154543791029051 10.770691333982475 0.71834935897435914 0.47478439364404323 0.68790584415584421 11.17425810904072 0.40450861195542048 0.53208647906657525 10.949358974358974 9.2500000000000018 -7.7499999999999991 -0.62705583490467187 24.500000000000004 0.38315602836879437 37.500000000000007 -0.79935064935064915 0.43650793650793651 0.64334637964774966 7.116666666666668 0.13100686498855832 0.51136950904392775 0.40090581687220356 -7.7499999999999991 0.62767897856817156 10.410046237915092 43.500000000000007 0.13714733542319749 -0.10000000000000049 0.44756480754124123 0.17316341829085458 10.98571136966728 -0.12932159485867872 0.59878048780487814 0.054299754299754262 -0.39296358095908424 -2.2499999999999996 0.077935222672064763 0.11483516483516476 13.048199767711965 0.65443322109988789
decision_type=2 2 2 2 2 2 2 2 2 2 2 2 2 2 2 2 2 2 2 2 2 2 2 2 2 2 2 2 2 2 2 2 2 2 2 2 2 2 2 2 2 2 2 2 2 2 2 2 2 2 2 2 2 2 2 2 2 2 2 2 2 2
left_child=2 3 18 5 13 -2 -4 8 32 10 11 39 40 14 15 49 -15 -10 23 41 -7 -18 -23 -1 28 26 60 -27 -21 -22 31 -8 46 -5 -16 36 -36 38 -34 -9 -11 45 -32 44 -31 58 -6 59 53 50 -3 -41 -48 -43 -55 -38 57 -37 -19 -39 -13 -62
right_child=1 4 6 33 7 20 30 9 17 12 -12 25 -14 16 34 -17 21 19 -20 24 29 22 -24 -25 -26 27 -28 -29 -30 43 42 -33 37 -35 35 56 55 47 -40 51 -42 48 -44 -45 -46 -47 52 -49 -50 -51 -52 -53 -54 54 -56 -57 -58 -59 -60 -61 61 -63
leaf_value=-0.11269874757837964 -0.066707558139956824 -0.013357778391386348 -0.025068705653267659 -0.05644798511138558 -0.12258063828204077 -0.10481454367465004 -0.064556357343643511 0.013607055938054197 -0.068509915563895019 0.013317111482898922 0.024942798781049977 -0.010562799121470411 0.033323278888612855 0.029618433072739904 -0.096541316551986389 0.023175222958178247 0.024229566431470159 -0.04490596545424292 -0.10996413631447344 -0.073376280608528133 0.04538373441688013 -0.0072020345742435724 -0.066707558139956824 -0.029791415903222779 -0.11338861541995601 -0.020316445315112924 -0.10180609744822688 -0.085618860662770996 0.002758300907661014 -0.015711445144999732 -0.082712492064527979 0.0066483890143276131 -0.086571837833573501 0.03103946982403364 -0.066707558139956824 -0.091715267397099259 -0.060645083168528374 0.012596168513323625 -0.023683542213690296 -0.069375047127385361 -0.064623582368528304 0.016651472717184576 -0.0047837066460803546 0.028817385328767382 -0.1133886154199559 0.026654556420041546 -0.12286522103318887 -0.071837344654242463 -0.049031426295550941 -0.034395191539662841 -0.093382448014242087 0.0095064129294295946 -0.055593020692337979 -0.031892904076091889 0.039992001357184163 0.029155327345755787 -0.071837344654242463 0.0060421415171847612 -0.1000511704828134 -0.039079993627304251 -0.062539606597099756 0.026654556420041546
leaf_weight=7.2477650046348598 20.993526220321655 3.748843967914584 51.234200894832611 3.2489981055259696 9.2471484541893023 3.498921036720275 23.242832601070404 57.482274174690247 18.494296908378601 3.7488439679145804 46.735588133335114 67.979037284851074 7.4976879358291617 13.495838284492491 18.994142770767212 17.244682252407074 8.2474567294120771 12.995992422103887 55.482890725135803 4.9984586238861075 11.746377766132353 16.244990527629849 29.240982949733738 13.995684146881102 2.4992293119430533 11.496454834938051 4.7485356926918021 16.744836390018463 89.972255229949951 21.243449151515961 56.232659518718719 9.996917247772215 23.492755532264713 54.733121931552887 8.2474567294120806 5.9981503486633292 2.7491522431373578 9.2471484541893023 7.7476108670234671 6.2480732798576337 47.985202789306641 12.99599242210388 3.498921036720275 9.2471484541892988 2.4992293119430569 2.4992293119430533 4.7485356926918056 9.7469943165779096 20.74360328912735 24.242524325847626 13.745761215686796 5.2483815550804138 17.99445104598999 33.989518642425537 3.7488439679145804 7.9975337982177734 81.224952638149261 8.2474567294120771 8.9972255229949933 17.494605183601379 11.996300697326658 2.4992293119430533
leaf_count=29 84 15 205 13 37 14 93 230 74 15 187 272 30 54 76 69 33 52 222 20 47 65 117 56 10 46 19 67 360 85 225 40 94 219 33 24 11 37 31 25 192 52 14 37 10 10 19 39 83 97 55 21 72 136 15 32 325 33 36 70 48 10
internal_value=-0.0351203 -0.0280805 -0.0666321 -0.000544398 -0.0321455 -0.0228914 -0.0512204 -0.0262634 -0.0353694 -0.0164913 -0.00859955 -0.0170988 -0.0472923 -0.0457836 -0.0541496 -0.0299731 -0.0218362 -0.0227475 -0.0955981 -0.0183722 -0.00382116 -0.0347597 -0.0454556 -0.0580774 -0.00412416 -0.0307657 -0.0216125 -0.0590356 -0.00124878 0.00407776 -0.065632 -0.0431414 -0.0621949 0.0261372 -0.0648343 -0.0595729 -0.0254668 -0.0514507 -0.0709755 0.00577856 -0.0589757 -0.032843 -0.0781476 -0.0106297 -0.0259933 -0.0578613 -0.0849423 -0.0347342 -0.0242702 -0.0519325 -0.0762343 -0.0333639 -0.0696389 -0.0141462 -0.024752 0.00618313 -0.0663584 -0.0351189 -0.0674654 -0.0212107 -0.0169953 -0.0471613
internal_weight=0 988.945 220.932 127.211 861.734 69.2287 144.206 602.064 311.654 290.41 231.179 184.443 59.2317 259.67 192.441 58.9818 67.2293 211.935 76.7263 193.44 48.2351 53.7334 45.486 21.2434 97.4699 115.464 87.2231 28.2413 94.9707 44.7362 92.9713 33.2397 99.7192 57.9821 133.459 114.465 18.9941 67.7291 31.2404 68.9787 51.734 95.9704 59.7316 32.9898 23.7427 24.4924 31.9901 36.4887 71.478 41.7371 17.4946 11.4965 22.743 50.7344 37.7384 10.7467 95.4706 14.2456 21.9932 26.7418 82.4746 14.4955
internal_count=4841 3957 884 509 3448 277 577 2409 1247 1162 925 738 237 1039 770 236 269 848 307 774 193 215 182 85 390 462 349 113 380 179 372 133 399 232 534 458 76 271 125 276 207 384 239 132 95 98 128 146 286 167 70 46 91 203 151 43 382 57 88 107 330 58
is_linear=0
shrinkage=1


Tree=1
num_leaves=63
num_cat=0
split_feature=1 7 6 6 1 3 4 7 6 3 2 1 7 6 7 6 9 9 4 7 10 4 7 3 4 7 3 4 10 6 3 2 4 3 9 6 2 3 10 0 10 6 1 10 6 9 2 1 7 1 7 2 3 6 1 6 6 10 4 0 7 3
split_gain=96.9929 39.9672 35.7507 27.832 24.9665 22.9432 19.6438 19.3467 29.1 39.8711 24.7873 23.7826 20.8106 18.7952 18.2836 19.1575 16.313 15.789 15.1763 15.0153 14.9348 14.4716 14.326 12.4416 11.8914 11.7684 10.8855 9.7506 9.62528 9.58967 9.2879 9.06242 11.0307 8.97636 8.77787 10.8946 10.7357 8.68411 8.56986 8.49997 8.46604 9.30867 8.34663 11.5923 11.8181 8.31475 8.55527 9.78773 7.88356 12.213 7.37958 7.12333 6.97852 6.9044 6.81029 6.75847 6.71245 6.66198 6.63133 7.58974 6.61106 6.60853
threshold=0.045983086680761058 0.032795698924731158 3.7500000000000004 -6.7499999999999991 0.10300618921308571 -0.13457147874956013 11.091608391608395 0.43650793650793651 -2.2499999999999996 0.11213965736992022 0.66458333333333341 0.25657894736842107 0.13100686498855832 6.2500000000000009 0.097167584579071611 -2.7499999999999996 -0.14397348683062985 -0.14397348683062985 9.210101867572158 0.043015726179463455 10.360846920289857 9.3791891891891925 0.11483516483516476 -0.095687039165300136 10.770691333982475 0.069366479550922219 0.22006289308176183 13.048199767711965 13.203448275862071 -3.7499999999999996 -0.048560696377817694 0.53208647906657525 13.570197044334977 -0.72886904761904681 0.0090610538886393022 -7.7499999999999991 0.51136950904392775 4.8750000000000009 11.17425810904072 62.500000000000007 10.6013698630137 8.2500000000000018 0.43650793650793651 12.572299651567945 -7.2499999999999991 -0.72501516548193734 0.64967532467532474 0.17316341829085458 0.079473684210526321 0.15268065268065267 0.075235849056603757 0.34654631083202514 0.034266468916079811 8.2500000000000018 0.10620300751879695 -4.2499999999999991 -9.7499999999999982 11.260434782608696 10.493067426400762 50.500000000000007 0.094494047619047616 -0.79935064935064915
decision_type=2 2 2 2 2 2 2 2 2 2 2 2 2 2 2 2 2 2 2 2 2 2 2 2 2 2 2 2 2 2 2 2 2 2 2 2 2 2 2 2 2 2 2 2 2 2 2 2 2 2 2 2 2 2 2 2 2 2 2 2 2 2
left_child=2 3 19 5 13 54 -4 8 9 20 -9 12 45 14 15 23 30 39 -11 24 -6 -7 -18 28 -1 -17 27 -14 -3 37 -15 32 -24 -5 36 -36 -23 -12 -28 -8 41 -19 43 44 50 -10 -47 -48 -20 55 -22 -40 -41 -53 -2 57 -52 -50 -32 -60 -27 -46
right_child=1 4 6 33 7 21 17 10 11 18 29 -13 26 16 -16 25 22 40 48 -21 42 34 31 -25 -26 60 38 -29 -30 -31 58 -33 -34 -35 35 -37 -38 -39 51 52 -42 -43 -44 -45 61 46 47 -49 49 -51 56 53 -54 -55 -56 -57 -58 -59 59 -61 -62 -63
leaf_value=-0.0739155688244124 -0.0872390269236753 -0.06668569272300133 0.0095475522210741112 -0.037107739449441367 -0.037866943516088207 -0.078312092903042363 -0.014993482969498304 -0.029145024993308555 -0.0099513210108250899 -0.035192482072130431 -0.078784672049954485 0.057050564965075629 0.023440322043217679 0.068031520240230001 -0.033594948741707216 0.045316371142685191 0.044545688806463445 -0.041816841160141532 0.049615576612795878 -0.071299006717788785 -0.046856988738371165 0.097781535466926708 0.0016451259995508621 -0.0017816358600522657 0.0050620120394372567 -0.013965572876406483 0.01015904638082555 -0.0234204410257851 0.026591588886977879 0.064728086191886691 0.080160859513930649 -0.09726190452041264 -0.079218544064637381 0.059560286759940295 0.067296844127533659 -0.027809350372991821 -0.010303177754878858 0.034052306630131438 0.021226838792699692 0.083045679789025925 -0.052262405777841282 0.034199406794189417 0.034041805138577914 -0.032801168347558814 -0.031733493851002818 0.053026638124855398 -0.052150894013698594 0.049525803046188019 -0.05826808886368532 0.029357295568558324 0.04042203618003485 -0.066022514332642904 -0.013473642516377596 0.010012802286946879 -0.019136111024764098 -0.075407836661098487 -0.027100861721691401 0.047135698545575561 -0.041667732816423629 0.06145453886922278 0.060000522106333803 0.023258013161111701
leaf_weight=7.227028205990794 5.2441639602184322 18.715367585420612 51.241947710514069 2.4978517889976493 46.435455977916718 2.9917754530906668 18.229394391179088 63.187548339366913 7.7487800270318976 9.7389849871397001 2.7461770772933987 46.742729976773262 62.741212978959084 15.495122894644739 95.622706443071365 22.994008436799049 9.9960740357637388 9.9895882606506365 34.496444329619408 55.33255934715271 15.737532868981363 2.7485844492912319 21.487200975418098 25.987470895051956 13.996894121170042 22.224392488598827 16.497047618031502 13.486997812986372 3.2452478855848303 11.495367512106894 2.4988913387060157 3.7463472783565512 5.2471852004528037 62.227833703160286 21.745323598384857 3.495139732956889 13.996935695409773 4.4980960339307785 4.2437859922647503 4.9943243712186804 49.922425553202629 6.7476077377796164 12.493355900049208 35.463886290788651 6.2383040785789481 51.746447339653969 4.4945897161960584 4.9998870491981506 2.4977871477603912 58.491251558065414 6.4962624609470359 14.728006988763811 2.9962252527475357 3.7447494417428961 12.236382573843001 4.4941970854997617 8.4918623715639097 3.7493577003479004 6.2441677600145322 2.4981132745742798 3.496207818388938 43.97508317232132
leaf_count=29 21 75 205 10 186 12 73 253 31 39 11 187 251 62 383 92 40 40 138 222 63 11 86 104 56 89 66 54 13 46 10 15 21 249 87 14 56 18 17 20 200 27 50 142 25 207 18 20 10 234 26 59 12 15 49 18 34 15 25 10 14 176
internal_value=0 0.0066895 -0.0299723 0.0328533 0.00282646 0.00904279 -0.0153047 0.00841569 0.0119739 0.0013912 -0.0141676 0.0251946 0.017121 -0.0101376 -0.0180934 -0.00275854 0.0126224 -0.0290157 0.0244849 -0.0575849 -0.0135542 0.0279349 -0.00739732 -0.025195 -0.0218309 0.0193249 0.0041371 0.0151493 -0.0529016 0.036334 0.0429308 -0.0244319 -0.0142261 0.0558297 0.0355057 0.0541271 0.00743768 -0.00872222 -0.0172697 0.0038545 -0.041945 -0.0111709 -0.0047954 -0.00896374 0.00148077 0.0388472 0.0450216 0.00139308 0.030088 0.020358 -0.0229436 -0.0371889 0.0468537 -0.0506088 -0.039567 -0.0286473 0.00216541 0.00499225 0.00833128 -0.0122005 -0.00391134 0.0164261
internal_weight=0 988.584 220.678 127.184 861.4 62.4583 144.122 601.901 519.974 288.8 81.9272 231.174 184.432 259.499 192.285 96.6627 67.2131 92.8796 113.468 76.5565 175.332 44.9778 40.4768 47.9481 21.2239 48.7146 115.442 76.2282 21.9606 18.7396 26.7363 30.4807 26.7344 64.7257 41.986 25.2405 16.7455 7.24427 39.2136 26.2199 66.6596 16.7372 128.896 116.403 80.939 68.9897 61.2409 9.49448 103.729 69.2326 30.7257 22.7165 7.99055 18.4728 17.4805 10.7413 14.9881 6.24714 11.2412 8.74228 25.7206 50.2134
internal_count=4841 3957 884 509 3448 250 577 2409 2081 1156 328 925 738 1039 770 387 269 372 454 307 702 180 162 192 85 195 462 305 88 75 107 122 107 259 168 101 67 29 157 105 267 67 516 466 324 276 245 38 415 277 123 91 32 74 70 43 60 25 45 35 103 201
is_linear=0
shrinkage=0.05


Tree=2
num_leaves=63
num_cat=0
split_feature=1 7 6 6 1 3 4 6 3 7 1 7 2 6 7 3 4 10 9 7 4 9 4 0 3 3 4 3 2 6 9 6 10 10 10 6 3 9 2 6 4 4 4 3 1 9 9 2 1 9 9 3 9 4 6 9 4 7 7 1 9 2
split_gain=87.722 36.1373 32.5223 25.1585 22.555 20.7432 17.7655 17.7049 35.6172 22.6421 21.5186 18.8078 18.0783 17.272 29.4853 20.6311 15.1106 15.4812 14.3698 13.6982 13.1043 12.9616 10.8069 10.7749 10.6519 10.4783 11.4401 9.99815 10.675 9.16877 9.959 8.64255 8.328 8.29425 8.19024 9.18186 8.1144 8.03238 11.9365 7.98112 7.73489 9.61166 7.63452 7.55823 9.80411 7.5618 7.51705 7.72547 8.84885 7.41828 7.34598 7.26292 6.88603 7.07669 6.84974 8.94427 7.4617 7.984 6.7454 10.0339 8.21932 8.29768
threshold=0.045983086680761058 0.032795698924731158 3.7500000000000004 -6.7499999999999991 0.10300618921308571 -0.13457147874956013 11.091608391608395 -2.2499999999999996 -0.30409436501873527 0.43650793650793651 0.25657894736842107 0.13100686498855832 0.66458333333333341 -2.7499999999999996 0.069366479550922219 -0.24154543791029051 14.254629629629632 7.8500000000000005 -0.17204022988505757 0.043015726179463455 9.3791891891891925 0.052884761050190507 10.770691333982475 61.500000000000007 -0.095687039165300136 0.11213965736992022 9.210101867572158 0.36674500587544134 0.68790584415584421 5.7500000000000009 -0.10659591194968594 -7.7499999999999991 13.203448275862071 9.8060035842293924 10.6013698630137 8.2500000000000018 -0.72886904761904681 -0.080862312992010688 0.56195175438596501 -7.2499999999999991 13.346989966555187 12.224318658280923 7.116666666666668 -0.84262057919346922 0.61250000000000016 -0.65472930062713253 -0.72501516548193734 0.64967532467532474 0.17316341829085458 0.092109518833656659 0.07578166401695792 0.034266468916079811 0.82684772124427408 12.146446078431374 7.2500000000000009 -0.15920427090639847 10.391854705558616 0.13840996168582378 0.089898989898989853 0.13484848484848483 -0.20129870129870128 0.58681159420289875
decision_type=2 2 2 2 2 2 2 2 2 2 2 2 2 2 2 2 2 2 2 2 2 2 2 2 2 2 2 2 2 2 2 2 2 2 2 2 2 2 2 2 2 2 2 2 2 2 2 2 2 2 2 2 2 2 2 2 2 2 2 2 2 2
left_child=2 3 19 5 13 -2 -4 8 31 10 11 46 42 24 -15 29 17 -10 23 22 -7 54 -1 -8 32 40 -27 28 -13 -16 -31 -6 -3 -26 35 -20 -5 38 -22 -39 41 -19 -11 44 -33 -45 -9 -48 -49 -43 -47 -25 53 -44 55 -17 -56 -58 -28 -60 -61 -62
right_child=1 4 6 36 7 20 18 9 16 12 -12 27 -14 14 15 21 -18 25 34 -21 37 -23 -24 51 33 26 58 -29 -30 30 -32 43 -34 -35 -36 -37 -38 39 -40 -41 -42 49 52 45 -46 50 47 48 -50 -51 -52 -53 -54 -55 56 -57 57 -59 59 60 61 -63
leaf_value=-0.07061787940038626 -0.037665004945904107 -0.061684032812617785 0.0090692694571661101 -0.035303980112199727 -0.046412478662556211 -0.074826346449631986 -0.01583141193002251 -0.0094537294191356751 -0.06417552297428368 0.047461021037883216 0.054282527349663559 0.017422249789984714 0.061916603393512341 0.046853810723588157 -0.0042234287662842665 -0.03960851278867316 0.046637150092098019 -0.0094575786596842407 -0.039798719456234075 -0.068094435507509363 0.09451100156542161 -0.041918950711941336 0.0048085695962148053 0.09904782951857212 -0.096498133109975223 -0.027136937269648977 0.042035849582653502 -0.019609755028654311 -0.061866321914551763 0.071255306505724245 0.0091490013614305126 -0.042244871725281519 0.015469166684301853 -0.0062193178231875123 -0.048990087472531342 0.0349162148262094 0.05667153294212264 0.056761265539528753 -0.022708161540111623 -0.036846700730398363 -0.050130040732222228 0.012267388062735722 0.01543315718935631 0.04596200480532335 0.061221622888746267 -0.033487226119093952 0.050427805530276829 -0.049669663047600704 0.047090249918151153 0.090223080727195482 0.015778963194996994 -0.0053010783935023608 -0.044432137159735867 -0.042467039572661326 0.068439779041377102 0.0083035221983658123 0.049150810813214894 -0.029706431671089974 -0.049857113964518494 -0.0007396276739045735 0.0065695122231256876 0.062269416770066123
leaf_weight=7.1872442513704327 17.44647678732872 28.113825559616089 51.246914714574814 2.4942852258682242 31.886019945144653 2.9749884009361258 16.723029538989071 7.7487988024950019 7.4854449927806845 3.7497650831937781 46.671514958143234 78.473062187433243 7.4820023775100699 26.723178878426552 29.697579473257065 22.440107345581055 26.48720546066761 50.946028605103493 9.9717652797698992 55.046604216098785 2.7383908927440634 48.132003352046013 13.997859597206114 4.247408613562583 2.7454233169555655 11.720384672284125 36.477136328816414 32.427790656685829 4.4878434687852851 11.483878552913668 14.739615038037298 27.415950119495395 3.9945845156908026 34.706044778227806 52.036568731069565 6.9976008385419837 62.131864950060844 26.209873348474503 10.496567726135252 2.4937302470207241 8.4885377883911115 9.491098538041113 13.969270825386049 7.2456757426261893 2.4981677532196036 16.479381516575817 51.693642154335976 4.483426094055174 4.9956464767456055 4.4980205446481696 13.989814668893812 2.7453717142343521 25.444029003381729 8.4813430011272413 5.2410278618335751 17.212410271167755 4.9954804927110663 8.9794557243585569 5.4787351042032233 22.989260151982304 11.244461774826055 16.494500696659088
leaf_count=29 70 113 205 10 128 12 67 31 30 15 187 314 30 107 119 90 106 204 40 222 11 193 56 17 11 47 146 130 18 46 59 110 16 139 209 28 249 105 42 10 34 38 56 29 10 66 207 18 20 18 56 11 102 34 21 69 20 36 22 92 45 66
internal_value=0 0.00636092 -0.0285388 0.03126 0.00268704 0.00860393 -0.0145562 0.00800096 -0.000280473 0.0168878 0.023955 0.0162754 -0.010721 -0.00964265 -0.00182585 -0.00981052 0.0113121 0.00626303 -0.027614 -0.0549457 0.0265769 -0.0226734 -0.0207806 0.00596201 -0.030954 0.00922805 0.0194063 0.00393132 0.0131331 0.0148015 0.0363468 -0.0249533 -0.0520855 -0.0128373 -0.0391533 -0.00898877 0.0531217 0.0337701 0.00154517 0.0486287 -0.00524491 0.000622624 -0.0212444 -0.0148356 -0.0336042 5.09555e-05 0.036942 0.042819 0.0013246 0.037333 -0.0108668 0.0580804 -0.0266234 -0.00644025 -0.00693778 -0.0188108 0.0175624 -0.00151812 0.025292 0.0144255 0.0213682 0.0396905
internal_weight=0 987.615 220.2 126.986 860.629 62.36 143.969 601.424 311.316 290.108 230.982 184.31 59.1264 259.205 189.645 162.922 211.801 185.314 92.7217 76.2317 44.9136 107 21.1851 23.7158 69.5599 177.828 104.404 115.389 82.9609 55.9211 26.2235 99.515 32.1084 37.4515 69.0059 16.9694 64.6262 41.9386 13.235 28.7036 73.4237 64.9351 51.6444 67.629 29.9141 37.7149 68.9215 61.1727 9.47907 13.9891 30.4692 6.99278 47.8946 22.4506 58.8685 39.6525 19.216 13.9749 92.6841 56.207 50.7282 27.739
internal_count=4841 3957 884 509 3448 250 577 2409 1247 1162 925 738 237 1039 760 653 848 742 372 307 180 429 85 95 279 712 418 462 332 224 105 399 129 150 277 68 259 168 53 115 294 260 207 271 120 151 276 245 38 56 122 28 192 90 236 159 77 56 371 225 203 111
is_linear=0
shrinkage=0.05


Tree=3
num_leaves=63
num_cat=0
split_feature=1 7 6 6 1 0 1 6 7 4 1 6 9 6 4 7 4 5 7 7 9 4 6 10 4 2 9 4 10 1 7 2 2 9 8 6 4 0 2 1 2 6 2 9 8 7 10 6 6 10 4 1 5 10 6 9 7 8 8 2 4 9
split_gain=79.4195 32.7282 29.6764 22.8109 20.9368 20.0804 26.2472 22.4972 29.1225 16.0843 15.7913 15.4757 13.0579 12.9234 15.8421 12.5511 12.5328 12.3276 12.1533 12.0487 11.2643 13.5647 11.0802 15.326 13.3065 10.7702 10.36 9.84953 9.267 9.14429 9.06151 9.00895 8.82986 14.8752 8.26335 10.9915 12.6852 8.26202 8.09583 7.81222 7.4753 8.15109 7.29071 9.46139 7.19398 9.64246 6.97105 7.58116 6.88795 6.87706 6.8121 6.77703 8.56215 10.881 6.72934 6.70684 6.56585 6.32181 8.33188 9.45134 9.77441 6.93046
threshold=0.045983086680761058 0.032795698924731158 3.7500000000000004 -6.2499999999999991 0.5634920634920636 13.500000000000002 0.13484848484848483 -1.7499999999999998 0.069366479550922219 11.091608391608395 0.42261904761904762 -5.2499999999999991 -0.14397348683062985 6.2500000000000009 13.570197044334977 0.043015726179463455 11.525211864406783 1.0000000180025095e-35 0.15707236842105263 0.12701612903225809 -0.037930994074889243 9.2519841269841301 -4.7499999999999991 10.914589665653498 15.788602941176473 0.4818121693121693 -0.13003378378378452 10.770691333982475 11.049590163934427 0.23303167420814477 0.13245614035087719 0.62910052910052927 0.49691358024691362 -0.037930994074889243 0.79698822463768126 -2.7499999999999996 10.099382716049385 63.500000000000007 0.46201923076923085 0.070598006644518263 0.45260557053009892 8.7500000000000018 0.61938296445338714 -0.56794900835598472 0.59663271080928137 0.15707236842105263 10.6013698630137 8.7500000000000018 -14.749999999999998 12.861395646606915 9.7231800766283527 0.080540540540540509 1.0000000180025095e-35 12.890873015873018 1.2500000000000002 0.28030481614538699 0.36038961038961043 0.74322344322344336 0.57229965156794427 0.39003720545680037 11.132843137254904 0.095689029220207708
decision_type=2 2 2 2 2 2 2 2 2 2 2 2 2 2 2 2 2 2 2 2 2 2 2 2 2 2 2 2 2 2 2 2 2 2 2 2 2 2 2 2 2 2 2 2 2 2 2 2 2 2 2 2 2 2 2 2 2 2 2 2 2 2
left_child=2 3 15 16 5 10 7 30 25 -4 -3 20 40 17 26 27 32 19 42 -10 -8 -22 23 24 -6 -9 -15 -1 -18 31 51 -20 55 -34 35 36 -12 -23 39 49 41 -11 -13 -44 -40 -46 47 -14 -30 -28 -35 -7 -53 -54 -31 -2 -56 58 59 60 -19 -60
right_child=1 4 9 -5 22 6 11 8 13 12 34 18 46 14 -16 -17 28 57 29 -21 21 37 -24 -25 -26 -27 38 -29 48 54 -32 -33 33 50 -36 -37 -38 -39 44 -41 -42 -43 43 -45 45 -47 -48 -49 -50 -51 -52 52 53 -55 56 -57 -58 -59 61 -61 -62 -63
leaf_value=-0.067625635135187795 0.071990011550669017 -0.028277497930775899 0.0086153650505429915 0.052980585748303638 -0.069775430413796344 -0.032232730994963828 -0.01322026269539037 0.073412459149826734 -0.0071088068049586983 -0.034639013029393532 -0.082831323765952369 0.046302171049858287 -0.032968774352625449 0.044583781715379564 -0.044114984408841297 -0.065175636056502007 -0.0060905704439441037 0.078875032956207583 0.0070966766447756978 -0.05111623674428626 -0.095639207673080637 0.017140757644179293 0.061219722580241678 0.04666159834025365 0.045732553713568214 0.014095428039858748 0.018259887684165959 0.0045678900334078006 -0.029138932697125242 0.0095021732046719105 -0.04809539696810726 -0.047074384940105948 -0.079398010749006487 -0.06027567914928298 -0.056332942589755866 0.051343194028216979 0.018461682173802108 0.086659938564169259 -0.082960788373359087 0.051699122393255192 0.071684665800932995 0.025473169524389584 -0.05232148321504352 0.027378668546218888 0.045541712624231477 -0.043795794678794291 -0.047517949920616288 0.039627826409163493 0.054577617470686582 -0.067322340210128964 0.02301935075454763 -0.03131611102507937 -0.0031719623383219689 0.068493586760198566 0.074668233356299504 -0.027497179953391227 0.01339024891490017 -0.045328837997892182 0.045413493235078269 -0.045328175845355569 -0.015069009433076472 -0.0034538319203763386
leaf_weight=7.1313801705837276 4.4619361758232143 92.909263581037521 51.249465420842171 57.694807350635529 7.4690083116292971 37.566037744283676 66.332331284880638 18.690509229898456 32.403555393218994 12.2168859243393 4.2302962094545391 61.61200724542141 11.44676646590233 29.156299531459808 10.455030351877211 54.646127432584763 12.706972435116766 4.2404921650886553 52.921383053064346 29.91045118868351 2.4923599362373343 43.384373098611832 21.657998859882355 14.471913829445837 3.7427393794059753 12.958002388477324 8.4882640689611453 13.998611450195311 2.7418537437915793 18.953757002949715 25.116601079702377 8.9769160598516446 8.9715859740972572 3.2075356543064073 3.9829751998186103 14.692823261022566 11.47501267492771 4.7408506274223319 3.7347669601440421 12.233324646949766 3.4927752763032904 10.474396750330923 4.2382989525794974 30.6700479388237 5.4843810051679593 6.7227217257022858 49.602937027812004 5.2435445934534064 23.651036947965626 3.2445987462997428 10.456903725862501 23.426413029432297 45.843765661120415 5.9883640855550757 11.70720784366131 2.730843648314476 6.9763461500406256 5.9773981273174277 18.463446199893955 11.709172442555426 7.9779693186283112 11.952256843447683
leaf_count=29 18 373 205 232 30 151 266 75 130 49 17 247 46 117 42 222 51 17 212 120 10 174 87 58 15 52 34 56 11 76 101 36 36 13 16 59 46 19 15 49 14 42 17 123 22 27 200 21 95 13 42 94 184 24 47 11 28 24 74 47 32 48
internal_value=0 0.0060528 -0.0272024 0.0297844 0.00255612 0.000671759 0.00406176 -0.0049208 0.0045271 -0.0138532 -0.0175645 0.01473 -0.026305 -0.00245514 0.0132444 -0.052522 0.0103687 -0.0126351 0.0233167 -0.0282322 0.000335055 0.0180988 0.0348782 0.0126654 -0.0312162 0.049126 0.0219276 -0.0197975 0.0289906 0.0110579 -0.0209345 -0.000759582 -0.014041 -0.0293758 0.0113856 0.0202586 -0.00882205 0.0239891 0.00537523 0.0237423 0.00359049 -0.00689096 0.0359584 0.0177021 -0.0222369 -0.00365843 -0.0381129 -0.0101613 0.0458806 -0.00540697 0.00346701 -0.014888 -0.00623018 0.00510783 0.030493 0.0342182 0.0517873 0.0034773 0.00884565 -0.0132277 0.0175348 0.0262104
internal_weight=0 986.005 219.503 126.623 859.382 812.04 684.75 371.744 233.803 143.727 127.29 313.006 92.4773 202.154 79.5194 75.7761 68.9287 122.635 196.056 62.314 116.95 50.6176 47.3417 25.6837 11.2117 31.6485 69.0644 21.13 39.0999 99.5356 137.941 61.8983 29.8288 22.636 34.3811 30.3981 15.7053 48.1252 39.9081 23.9662 26.1841 22.6913 96.5204 34.9083 15.9419 12.2071 66.2932 16.6903 26.3929 11.7329 13.6644 112.825 75.2585 51.8321 37.6373 7.19278 18.6836 60.3207 54.3433 23.9276 12.2185 30.4157
internal_count=4841 3957 884 509 3448 3258 2747 1492 938 577 511 1255 372 811 319 307 277 492 786 250 469 203 190 103 45 127 277 85 157 399 554 248 120 91 138 122 63 193 160 96 105 91 387 140 64 49 267 67 106 47 55 453 302 208 151 29 75 242 218 96 49 122
is_linear=0
shrinkage=0.05


Tree=4
num_leaves=63
num_cat=0
split_feature=1 2 7 6 6 3 9 1 7 6 1 6 9 4 2 3 2 4 9 6 7 9 1 3 3 2 9 2 3 1 2 4 4 4 1 1 7 10 3 4 1 3 6 3 2 2 1 7 10 8 10 6 7 2 6 4 6 7 4 6 7 5
split_gain=71.9517 30.1563 27.7977 27.1544 26.7906 32.474 15.6376 14.9386 15.6861 18.0166 23.2829 14.8106 16.9615 14.5724 12.9308 12.8262 12.2344 12.862 11.9178 11.8977 11.5431 11.4758 13.2991 11.158 10.1473 9.31622 9.93414 9.31574 9.18446 9.13904 9.07864 8.9992 8.9937 8.7964 11.1143 8.49248 10.2831 7.85147 7.8162 9.17845 7.65184 7.36401 9.45336 8.92737 7.30796 9.6841 7.95398 7.25759 7.20203 7.10346 6.81199 7.67327 6.73656 6.7249 6.6436 6.62585 6.46818 6.38678 6.38127 6.38064 6.37915 8.96462
threshold=0.045983086680761058 0.85912698412698429 0.091966173361522172 3.7500000000000004 -3.7499999999999996 -0.048560696377817694 -0.037930994074889243 0.10300618921308571 0.43650793650793651 -2.2499999999999996 0.25657894736842107 5.7500000000000009 -0.16666666666666688 11.091608391608395 0.50308641975308654 0.046541905182323207 0.52843665768194081 13.504385964912283 -0.17204022988505757 -7.2499999999999991 0.043015726179463455 0.12763818094934723 0.10620300751879695 0.69309434208168252 -0.34740790255496184 0.62910052910052927 -1.5130025484995062 0.47856705450091858 -1.0086206896551724 0.17752100840336132 0.66458333333333341 10.770691333982475 9.1684397163120579 10.98571136966728 0.21583850931677012 0.088562091503267909 0.069366479550922219 9.5039682539682548 -0.12078438802576744 10.955389718076287 0.21980676328502413 0.64195330414842655 -12.249999999999998 -0.0096068660022145484 0.38315602836879437 0.40946348733233989 0.16397849462365588 0.13840996168582378 11.827254641909816 0.43534002229654406 10.6013698630137 8.2500000000000018 0.30384615384615393 0.44756480754124123 6.2500000000000009 10.98571136966728 -3.2499999999999996 0.097167584579071611 12.207614942528739 -3.7499999999999996 0.23669467787114842 1.0000000180025095e-35
decision_type=2 2 2 2 2 2 2 2 2 2 2 2 2 2 2 2 2 2 2 2 2 2 2 2 2 2 2 2 2 2 2 2 2 2 2 2 2 2 2 2 2 2 2 2 2 2 2 2 2 2 2 2 2 2 2 2 2 2 2 2 2 2
left_child=3 2 4 20 5 19 14 11 9 15 23 57 38 -5 -7 37 17 -14 49 21 31 48 -23 25 -24 26 -11 -17 -21 -30 54 -1 -8 34 44 36 53 -9 -13 -40 47 42 -16 -44 -28 -46 -47 -27 -2 -15 51 -20 -51 -6 -10 -39 -29 -4 -50 -32 -12 -62
right_child=1 -3 7 13 35 6 32 8 30 10 60 12 16 18 41 27 -18 -19 50 28 -22 22 24 -25 -26 40 33 56 29 -31 59 -33 -34 -35 -36 -37 -38 55 39 -41 -42 -43 43 -45 45 46 -48 -49 58 52 -52 -53 -54 -55 -56 -57 -58 -59 -60 -61 61 -63
leaf_value=-0.064891169901067858 -0.068377845183914931 0.062569616122180496 0.028102252377621713 0.0081845189468243307 0.053482038933374568 0.045378043185098714 -0.045845687865724488 -0.050848817967807269 -0.039436656409397267 -0.049054055178931091 0.075820132184175881 0.0610785085285699 0.007288691074901682 -0.074365442098070528 -0.079774758288240544 -0.038772219055835853 -0.08349549167127393 -0.07468903283447198 -0.036356974222469383 -0.069880923382618407 -0.062498941033826694 -0.090434432727777625 -0.034332182509657368 -0.024580474816365636 0.055128741499112954 0.0042991172819724461 0.04744291623545744 0.02149632574034227 -0.0037293037804923927 0.051028241669960533 -0.025534441904812435 0.0043393177951837952 0.043268159025682311 0.035720438704431999 0.084686346721014757 0.042105985155033526 -0.0082353012107609976 -0.033002701456009108 0.055913517949593365 -0.034429258992548784 0.052749092919996909 0.037585800408580165 0.056586822777979218 -0.019661308667614532 -0.08828168706969311 -0.024763286598315136 0.03033788843106934 -0.061873212113829304 -0.045314574816230274 0.025781143612614816 -0.044661717390622281 0.032056431558839665 -0.058246913756847998 0.0121736017317475 -0.0063721516855977161 -0.0010079120126150665 -0.028615813635272692 -0.031501210298005948 0.023465479168009892 0.047862514130616908 0.012551905864046127 0.070285787707341341
leaf_weight=7.0620369762182262 20.346923440694809 22.817860692739487 4.737989827990531 51.249938905239105 20.329874321818352 13.658788919448851 2.9704196006059638 15.149612471461294 37.309714615345001 4.9944485723972312 15.137802839279173 13.421718895435335 29.67966166138649 2.4901607334613827 5.492039099335666 8.7167482972145063 5.9361923933029166 5.7043379247188559 9.9201989173889178 4.2271933406591407 54.149650812149048 3.2118580192327526 4.9801630824804315 22.413175627589226 8.7194928079843486 7.713133901357657 5.9907899647951117 60.359216704964638 39.01482455432415 9.4694324284791929 4.7270255088806152 13.999174714088438 60.459049448370934 58.133511573076248 3.9950008839368811 84.027218416333199 23.649981513619423 23.900373488664627 4.9721693992614728 6.4693319946527481 3.2378952652215949 6.7356227636337271 4.4910162538290015 26.437062874436386 3.7440868616104153 16.219499260187153 10.985265627503393 8.9536791592836362 10.424027368426321 18.436727136373523 51.611549988389015 6.9842155426740637 2.7396651357412329 19.117569923400879 25.627357810735703 50.105181977152824 7.2082581967115393 87.447380155324936 4.98494829237461 7.9260197728872281 16.881503015756607 11.174376517534258
leaf_count=29 82 92 19 205 82 55 12 61 150 20 61 54 119 10 22 35 24 23 40 17 222 13 20 90 35 31 24 242 157 38 19 56 243 233 16 338 95 96 20 26 13 27 18 106 15 65 44 36 42 74 209 28 11 77 103 201 29 352 20 32 68 45
internal_value=0 0.00575894 0.00441105 -0.0259493 0.0150964 0.004272 0.0220299 -0.0023515 0.00247768 0.00688118 0.0174036 -0.015482 0.00256386 -0.0131896 0.00297797 -0.00517625 -0.0170709 -0.00592713 -0.0250729 -0.0159909 -0.0502828 -0.0327985 0.00113841 0.00788509 0.0226075 0.0137548 0.0197495 0.00987443 0.000802675 0.00696536 -0.0182036 -0.0188744 0.0390949 0.0232182 0.0054631 0.0316962 0.0178335 -0.0180541 0.0351948 0.00483129 -0.0175856 -0.0104417 -0.019324 -0.00858944 -0.00310485 -0.0128894 -0.00251347 -0.0312497 -0.0488497 0.00551669 -0.035639 -0.00809134 0.0149101 0.0334626 -0.0259731 -0.0113408 0.0161502 -0.0284378 -0.0230636 0.0204423 0.0496611 0.0355467
internal_weight=0 984.538 961.72 218.643 372.748 225.623 120.244 588.972 430.604 355.014 189.574 158.369 66.1834 143.432 56.8145 165.439 41.3202 35.384 92.1825 105.379 75.2109 52.6674 16.9115 146.38 13.6997 123.967 104.063 76.2842 52.7115 48.4843 75.5901 21.0612 63.4295 99.0682 40.9346 147.125 63.0974 89.1552 24.8632 11.4415 19.9047 43.1557 36.4201 30.9281 36.9396 30.9489 27.2048 16.6668 35.7559 23.6666 68.516 16.9044 21.1764 39.4474 62.9371 74.0056 67.5675 92.1854 15.409 12.653 43.1937 28.0559
internal_count=4841 3957 3865 884 1499 907 483 2366 1729 1425 761 637 266 577 228 664 166 142 372 424 307 212 68 587 55 497 417 306 212 195 304 85 255 397 164 592 254 358 100 46 80 173 146 124 148 124 109 67 144 95 277 68 85 159 253 297 271 371 62 51 174 113
is_linear=0
shrinkage=0.05


Tree=5
num_leaves=63
num_cat=0
split_feature=1 7 6 6 1 6 7 1 7 4 1 9 6 4 2 4 2 9 7 1 6 10 4 7 9 2 4 7 10 4 7 1 4 8 0 1 0 0 2 9 10 2 1 7 5 5 2 7 0 2 0 7 4 1 7 4 7 2 10 6 10 8
split_gain=65.233 27.8667 24.9036 19.786 17.5576 17.6746 25.027 14.5587 17.8359 13.2115 11.5988 11.4459 13.6286 12.8144 12.5463 11.2677 10.9572 10.8529 10.6501 10.2014 9.72318 12.8199 9.03049 8.69863 8.66882 16.7197 8.23978 7.94916 7.93841 7.80698 7.78746 7.46747 7.51982 7.39455 7.36913 12.0686 8.78732 6.84486 6.73818 8.67022 6.72847 10.1761 12.8389 6.67162 6.50221 6.40075 6.35484 6.34254 6.33414 8.37079 8.44066 6.30222 6.21196 6.13141 8.92666 6.04401 6.03658 6.3539 5.95581 6.89932 7.29157 6.26019
threshold=0.045983086680761058 0.032795698924731158 3.7500000000000004 -6.7499999999999991 0.5634920634920636 -2.7499999999999996 0.13100686498855832 0.10620300751879695 0.37980769230769235 11.091608391608395 0.069366479550922219 0.025500852514918255 7.7500000000000009 10.570524412296566 0.48025974025974033 11.525211864406783 0.52206359506813771 -0.14397348683062985 0.043015726179463455 0.14907407407407408 -3.7499999999999996 10.914589665653498 16.031250000000004 0.36931818181818182 0.066634178037687314 0.47856705450091858 10.770691333982475 0.11696306429548561 11.049590163934427 11.038218111002923 0.12060606060606062 0.1188235294117647 14.00704225352113 0.58554006968641126 19.500000000000004 0.22902097902097898 14.500000000000002 62.500000000000007 0.49691358024691362 0.10947904426165242 12.827665317139003 0.57052441229656436 0.080540540540540509 0.065942028985507203 1.0000000180025095e-35 1.0000000180025095e-35 0.40765107212475632 0.21583850931677012 13.500000000000002 0.5078144078144079 28.500000000000004 0.32291666666666669 12.90205479452055 0.028174603174603106 0.13840996168582378 9.7231800766283527 0.25657894736842107 0.45773809523809522 9.5039682539682548 -4.7499999999999991 9.9938271604938294 0.6608656174334141
decision_type=2 2 2 2 2 2 2 2 2 2 2 2 2 2 2 2 2 2 2 2 2 2 2 2 2 2 2 2 2 2 2 2 2 2 2 2 2 2 2 2 2 2 2 2 2 2 2 2 2 2 2 2 2 2 2 2 2 2 2 2 2 2
left_child=2 3 18 15 5 7 10 40 24 -4 16 12 31 -14 -13 38 43 37 26 45 21 22 -6 -21 58 -26 -1 -27 -17 -25 -29 33 47 -8 36 -36 -32 53 -2 -40 -3 42 -42 -7 -34 -16 52 -33 -12 -50 -51 -23 -45 54 -11 -41 -35 -58 -9 61 -61 -60
right_child=1 4 9 -5 20 6 11 8 -10 17 48 14 13 -15 19 28 -18 -19 -20 23 -22 51 -24 29 25 27 -28 30 -30 -31 34 32 44 56 35 -37 -38 -39 39 55 41 -43 -44 46 -46 -47 -48 -49 49 50 -52 -53 -54 -55 -56 -57 57 -59 59 60 -62 -63
leaf_value=-0.06237597845730132 0.031330040348133546 -0.033859561676584111 0.0077754956325366727 0.046964740864306319 -0.048571754341132305 0.044583868540273741 -0.040916884656022091 -0.031688857573898895 -0.054551731707006126 -0.095023479215437259 -0.024565529209894327 -0.025242722083471045 0.084019390103335867 0.016437623369189067 -0.041956081072375494 -0.0099829475965122795 -0.05532126436834553 -0.034752174347562656 -0.060028942204579876 0.034429415784977928 0.060499288209024255 0.071890038184528673 0.04329999032136192 0.026944702806540079 -0.053408746262225963 0.034682042431241809 0.0041222290269138382 -0.07848390802868406 0.04062165054156771 -0.039539974024238964 0.012557423670065597 0.032807859041630784 -0.060488031193750173 0.022861212403458446 -0.0096274432659725091 0.070808500604354063 -0.076550813945433352 0.042035247975581141 -0.065808605063696277 -0.068618341220581733 -0.039652681263626401 -0.074507421276868296 0.10099071248533419 0.037691914532377357 0.025756868794807333 0.0082840620170051942 -0.026264043804953424 0.0019857283322758388 0.046364852853937967 0.07589533899806844 0.014693458573153521 0.007825688696435738 -0.046164082644050544 0.018374114083363102 0.00073477424540843055 0.021213718208549722 0.0046612306306647372 -0.094487950349866956 -0.012355761924896218 0.099030880427672996 0.010203091092932666 0.043827104397576637
leaf_weight=6.981496766209605 5.3975388854742077 63.896071523427963 51.248628422617912 63.927658841013908 9.4303076863288897 10.637333840131758 18.854290142655373 20.360205337405205 15.616326645016668 4.2327597886323982 5.2155941426753989 80.524881213903427 9.6608839035034162 25.603627726435661 15.595927283167839 11.17358787357807 7.4570167213678351 65.705652058124542 53.573430150747299 28.785617098212242 18.248386368155479 8.9514372348785383 3.7338203787803641 7.9515920281410244 8.445224389433859 43.802428543567657 13.999575257301329 2.7415592670440665 25.292165547609329 9.9291086047887784 7.2164323180913943 27.379935294389725 6.7150862365961057 12.943192809820177 9.7123801112175006 8.9703598171472532 4.4869260042905807 7.9518160521984091 9.6264390647411364 2.4496684670448285 2.7343309819698316 2.4900776743888855 3.9912137687206268 11.438381150364878 3.2398047894239426 10.681864202022552 13.68695545196533 42.753159776329994 54.399744242429733 6.1859905570745459 63.089497148990631 6.7212828397750846 2.7369668185710898 8.2225187718868238 5.7262172698974609 7.9459465444087982 3.9785215556621543 2.7209537476301193 93.392750322818756 2.4907423704862586 31.884955853223801 5.2361368089914313
leaf_count=29 22 258 205 259 38 43 76 82 63 17 21 324 39 103 63 45 30 267 222 116 74 36 15 32 34 176 56 11 102 40 29 110 27 52 39 36 18 32 39 10 11 10 16 46 13 43 55 172 219 25 254 27 11 33 23 32 16 11 375 10 128 21
internal_value=0 0.00548236 -0.0247715 0.0274557 0.00225548 0.000529322 0.00661749 -0.00843494 -0.00278272 -0.0125629 0.0217197 -0.00197484 0.00766261 0.034952 -0.0116362 0.00730282 0.000153014 -0.0239123 -0.0482027 0.00338442 0.031937 0.0138623 -0.0225136 0.0174157 0.000603564 0.0133734 -0.0180052 0.0207046 0.0251157 -0.00997407 0.0022231 -0.000452639 0.00824641 -0.0185499 0.00950482 0.0289932 -0.0216056 0.00334186 -0.0182507 -0.0316167 -0.0280991 0.0118411 0.0438109 0.0108979 -0.0324198 -0.0215336 -0.00196286 0.0140187 0.0294094 0.0316856 0.0201585 0.0444159 0.0215011 -0.013581 -0.0399644 4.52964e-05 0.00291939 -0.0356076 -0.00650514 -0.00265005 0.0166392 -0.00937305
internal_weight=0 982.532 217.642 125.813 856.719 809.634 482.166 327.468 254.356 143.088 174.847 307.318 153.849 35.2645 153.469 61.8853 45.9567 91.839 74.5545 72.9441 47.0852 28.8368 13.1641 46.6663 238.74 85.3753 20.9811 76.9301 36.4658 17.8807 33.1277 118.585 80.088 38.497 30.3861 18.6827 11.7034 26.1333 25.4196 20.0221 73.1117 9.21562 6.72554 38.4996 9.95489 26.2778 27.8623 70.1331 128.891 123.675 69.2755 15.6727 14.1753 18.1815 9.95898 10.3956 19.6427 6.69948 153.365 133.005 34.3757 98.6289
internal_count=4841 3957 884 509 3448 3258 1941 1317 1022 577 704 1237 619 142 618 250 185 372 307 294 190 116 53 188 959 343 85 309 147 72 133 477 322 155 122 75 47 105 103 81 295 37 27 155 40 106 112 282 519 498 279 63 57 73 40 42 79 27 616 534 138 396
is_linear=0
shrinkage=0.05


Tree=6
num_leaves=63
num_cat=0
split_feature=1 2 1 7 2 3 3 6 6 6 7 7 3 2 6 1 0 3 7 1 2 8 8 1 2 2 4 4 10 5 10 6 8 0 6 4 5 1 0 7 3 8 10 4 6 10 10 2 0 4 6 8 6 4 6 3 7 1 0 8 10 6
split_gain=59.6618 23.9317 22.2089 20.6388 22.5389 21.774 15.227 14.6305 14.5092 13.3312 22.1384 14.4357 15.5478 13.601 12.2712 16.1933 21.5359 14.7531 13.5166 13.4775 11.6381 10.5237 10.2095 9.54331 9.47019 9.16351 8.95916 8.59109 7.87362 7.70269 7.66989 7.51058 7.93674 7.3064 7.14045 8.75492 8.41678 7.84098 7.55619 7.18476 9.42705 7.03554 6.80295 7.44901 6.79538 9.14949 6.77977 6.72377 6.61671 6.38462 6.29344 6.14398 6.12231 5.93451 5.89567 7.87963 9.91338 7.65736 6.25818 9.40874 5.88137 6.45437
threshold=0.077935222672064763 0.85912698412698429 0.017095265926358804 0.094494047619047616 0.52206359506813771 0.56062370600414113 -0.38740644164372989 4.7500000000000009 -1.7499999999999998 6.2500000000000009 0.069366479550922219 0.11269841269841267 -0.053199685534590993 0.45512082853855002 -2.7499999999999996 0.40833333333333338 13.500000000000002 0.046541905182323207 0.91666666666666685 0.18898809523809523 0.65997591328783634 0.62095088819226762 0.71834935897435914 0.043961352657004807 0.59053651266766038 0.47402159244264502 11.315037593984966 10.955389718076287 10.934057971014495 1.0000000180025095e-35 13.385489510489512 1.0000000180025095e-35 0.49305421570519009 21.500000000000004 6.7500000000000009 10.936835106382981 1.0000000180025095e-35 0.15894736842105264 22.500000000000004 0.13245614035087719 -0.085714285714286229 0.57517123287671235 15.240384615384617 9.2519841269841301 -3.7499999999999996 15.045983086680762 11.232945736434109 0.60544848035581922 24.500000000000004 10.98571136966728 -8.2499999999999982 0.76986128625472905 5.2500000000000009 10.534108527131783 -5.7499999999999991 -0.032130296836180038 0.030776515151515155 0.046693313953488358 71.500000000000014 0.39159811985898946 12.951800232288038 4.7500000000000009
decision_type=2 2 2 2 2 2 2 2 2 2 2 2 2 2 2 2 2 2 2 2 2 2 2 2 2 2 2 2 2 2 2 2 2 2 2 2 2 2 2 2 2 2 2 2 2 2 2 2 2 2 2 2 2 2 2 2 2 2 2 2 2 2
left_child=2 3 7 4 60 6 8 -1 50 10 13 30 26 23 17 16 -16 24 -17 20 34 33 25 52 -5 -19 -13 -23 -28 41 -11 -12 -33 -9 35 36 37 -18 -37 -38 -41 48 43 -27 45 -8 -36 -26 -21 -49 -6 -34 53 -4 55 -15 -57 -56 59 -59 61 -2
right_child=1 -3 9 14 5 -7 44 21 -10 11 31 12 -14 54 15 18 19 22 -20 29 -22 27 -24 -25 47 42 28 -29 -30 -31 -32 32 51 -35 46 38 39 -39 -40 40 -42 -43 -44 -45 -46 -47 -48 49 -50 -51 -52 -53 -54 -55 57 56 -58 58 -60 -61 -62 -63
leaf_value=-0.072364294626730039 0.023988128515147505 0.058477355897861495 -0.051314910588584818 -0.04363351128669761 -0.06369679434361171 0.05334110292729053 0.00023189479662719483 0.020754333153756094 0.056849900462226502 0.034114401231449556 -0.050562654541444554 0.043449301719982937 -0.034686849579385191 -0.06866766381284925 -0.022823077831544133 0.049956753145777286 -0.057037566015351364 -0.036709827837213008 -0.07215158794009896 0.056600205699422458 -0.047474128619110254 0.055620157265829966 -0.079271970490021562 0.043299077570850719 0.04145258954024824 -0.032944850218443199 0.045614759897273344 -0.018203794730374687 -0.03248046608547344 0.052824754278786329 -0.033592518970837128 -0.05184578902057653 -0.011360200860764206 -0.052004822737612991 0.058433760482076741 -0.028971922859006041 0.051250620961470109 0.021126113930710927 0.017937140661964019 0.029784217428766319 -0.051448842968665844 -0.0087566526131141516 0.082725032082678951 0.017339784879253493 0.027775497083266855 0.097294797095889798 0.01191383746217523 -0.047348288018314463 -0.010401419370317414 -0.0068263900290763306 -0.018831548308078181 -0.091878058520468806 0.069814403935876235 0.0054055186442564422 -0.051256162751069527 0.042161382990581031 -0.066136833851732288 0.079314803776597068 0.055463341051482512 -0.030309354850069321 0.058159767416451416 0.071430804609436224
leaf_weight=24.483593806624413 60.634326294064522 22.593128979206085 6.2105435281992021 37.112878203392029 14.569384753704073 22.794777035713196 104.26640054583549 3.9517703205347088 4.4485991150140753 37.903098434209824 37.370587080717087 14.397915884852411 33.117706090211868 10.777932673692705 65.721533462405205 28.588639289140705 16.402340769767765 9.9039030373096448 2.4614221751689902 12.604621216654779 10.906572461128233 5.7495277225971249 3.4653652757406226 21.914012625813484 5.4735645949840537 8.4054205864667875 4.4654996097087887 12.527768164873121 11.641634613275526 23.305849507451057 4.7016017884016028 18.734998792409897 58.37826319038868 27.195162534713745 10.445863917469977 10.192061260342596 5.7178655266761806 3.9887314885854712 54.437667444348335 6.4821240007877359 7.9539104551076862 15.883177801966665 3.4868963956832877 59.495325684547424 35.38423590362072 2.4857805967330924 31.300512596964836 12.88771568238735 5.206961363554 39.556187957525253 16.863792315125465 2.4694392532110205 2.7290578186511985 17.911250308156013 6.132484748959544 4.9015642404556257 3.7143939137458801 2.4732031971216228 5.9317689985036841 9.3833383172750455 24.424866542220116 8.1302028447389585
leaf_count=102 245 92 26 150 59 92 420 16 18 153 153 58 134 44 265 116 66 40 10 51 44 23 14 89 22 34 18 51 47 94 19 76 237 110 42 41 23 16 219 26 32 64 14 239 143 10 126 52 21 159 68 10 11 73 25 20 15 10 24 38 99 33
internal_value=0 0.00774208 -0.0160879 0.00628258 0.0167613 0.00733047 0.00143893 -0.040757 -0.0276656 -0.0103046 -0.0176342 0.00411852 -0.0109647 0.000704174 1.3079e-05 0.00601489 0.00222291 -0.010389 0.0402769 0.00988513 0.0023589 -0.0250996 0.00477716 0.018815 -0.0239156 0.00836008 0.0147892 0.00501916 -0.0108296 0.0307243 0.0266427 -0.0320723 -0.0233896 -0.0427735 0.00605821 -0.000886345 -0.0190996 -0.0417478 0.0105396 0.00381513 -0.0149733 0.015438 0.0146128 0.0111151 0.00878626 0.00249206 0.0235541 -0.0112806 0.0370132 -0.0167844 -0.0396267 -0.0146279 -0.00116742 -0.00919807 -0.0196855 -0.0401723 -0.00452666 -0.0030757 0.0135344 -0.00744242 0.0370836 0.0295974
internal_weight=0 807.983 389.168 785.389 294.002 200.813 178.018 73.9078 35.8818 315.26 209.033 106.227 63.6228 92.0796 491.387 311.6 280.55 179.787 31.0501 214.828 157.828 49.4242 84.7569 48.7649 95.0303 81.2915 30.5051 18.2773 16.1071 57.0006 42.6047 116.953 79.5827 31.1469 146.921 105.175 40.545 20.3911 64.6297 20.1539 14.436 33.6948 71.3876 67.9007 142.136 106.752 41.7464 57.9175 17.8116 52.4439 31.4332 60.8477 26.8509 24.1218 43.3147 19.3939 8.61596 23.9208 17.7883 11.8565 93.1894 68.7645
internal_count=4841 3259 1582 3167 1187 810 718 302 145 1280 851 429 257 375 1980 1256 1130 724 126 865 635 200 341 199 383 327 123 74 65 230 172 476 323 126 591 423 163 82 260 81 58 136 287 273 573 430 168 233 72 211 127 247 110 99 176 79 35 97 72 48 377 278
is_linear=0
shrinkage=0.05


Tree=7
num_leaves=63
num_cat=0
split_feature=1 2 7 3 2 1 7 1 3 7 9 8 3 8 8 2 10 2 0 9 3 3 1 8 1 3 7 4 1 0 2 9 10 0 8 10 3 1 8 7 2 10 0 2 3 2 7 9 1 4 4 4 2 2 9 0 10 3 8 1 9 10
split_gain=54.5238 23.8239 21.0351 20.5662 19.3386 11.997 15.271 11.7679 11.1619 13.3732 10.405 9.94675 8.81257 12.7512 7.81207 10.9091 7.79873 7.32654 7.04976 10.4916 11.16 9.03772 8.59435 8.3095 6.96755 6.90463 6.74587 7.56295 6.48976 6.19274 6.10741 9.36186 9.71361 8.15141 6.59437 7.62034 7.4851 5.94324 11.8864 10.411 7.58583 7.11704 6.50016 6.21582 5.9542 5.88526 5.7966 5.76548 5.65096 5.51434 5.51102 8.15388 6.41061 5.44042 5.8823 5.36426 5.538 5.23559 5.19597 5.1875 5.04599 6.18686
threshold=0.045983086680761058 0.85912698412698429 0.091966173361522172 0.25405889078657934 0.46894290123456794 0.12060606060606062 0.43650793650793651 0.016530054644808705 -0.33440624734742291 0.086335403726708074 -0.016734905674743648 0.62095088819226762 -0.035425771893364343 0.55480480480480499 0.58554006968641126 0.45084230875448777 14.516826923076925 0.66458333333333341 63.500000000000007 -0.033807506844607489 0.11911683277962391 -0.040279573367808248 0.10620300751879695 0.56030303030303041 0.070598006644518263 0.15060429212971638 0.018693221523410155 11.381965944272448 0.10300618921308571 40.500000000000007 0.32529069767441865 0.056328481049170855 11.292006269592479 59.500000000000007 0.56773440106773443 13.879655172413793 -0.24154543791029051 0.22474747474747472 0.52843665768194081 0.15707236842105263 0.62910052910052927 14.661390827517447 47.500000000000007 0.68457101658255237 -4.8055555555555554 0.35032467532467532 0.13840996168582378 1.2509426847662148 0.073622402890695507 9.962000962000964 11.652475845410631 12.146446078431374 0.55370879120879135 0.31357916300848704 -0.039980506822612193 50.500000000000007 10.616202945990183 -0.21113973745552703 0.62988330796549985 0.068573667711598715 -0.26794416597048171 11.739428231089937
decision_type=2 2 2 2 2 2 2 2 2 2 2 2 2 2 2 2 2 2 2 2 2 2 2 2 2 2 2 2 2 2 2 2 2 2 2 2 2 2 2 2 2 2 2 2 2 2 2 2 2 2 2 2 2 2 2 2 2 2 2 2 2 2
left_child=7 2 3 4 -2 10 37 11 9 -6 14 -1 13 49 -4 -16 18 -8 22 20 21 23 55 -20 45 -13 27 -9 48 57 31 33 -33 53 -32 36 -36 38 47 43 50 42 44 -40 -39 -15 -38 -7 -17 -12 -41 -52 -53 54 60 -10 -57 -24 -47 -51 61 -28
right_child=1 -3 5 -5 8 6 17 26 16 -11 12 25 -14 24 15 28 -18 -19 19 -21 -22 -23 29 -25 -26 -27 30 -29 -30 -31 34 32 -34 -35 35 -37 46 41 39 40 -42 -43 -44 -45 -46 58 -48 -49 -50 59 51 52 -54 -55 -56 56 -58 -59 -60 -61 -62 -63
leaf_value=-0.05237193138414839 0.029390753362783874 0.05593193291752549 -0.014905471424451741 0.033896253905932296 -0.028109189179395463 -0.0092389910143152575 -0.024285656975512843 -0.03334084265799505 -0.072146087441203877 0.058068355717614095 0.025220920371717293 0.022832608914112425 -0.03764077186168216 0.031336251057457347 0.03864623700838906 0.010784737511885828 0.062124189712642809 0.017690098863439054 -0.030333854175525241 0.034274671418888389 -0.075735751687397351 0.042980473764169143 0.07995351468723419 0.045303266427067411 0.029892216705343325 -0.03271411839314859 0.039157646724036668 0.078153932207210466 0.031012310740411133 -0.0067838719189928986 -0.03655488937634966 0.011825246191610218 -0.059325229629004855 0.039444554340901467 0.032180639812603905 0.072316094548842233 -0.0033299719085867971 -0.041543634484973134 0.05084812989442794 -0.0051970226204931394 -0.037054412484325644 0.05173863686336834 0.072872963417796255 -0.0025982220647118382 0.01203351805608047 -0.0063216339134518525 -0.051242209565428791 -0.05519984567748918 -0.040773963122184065 -0.0096043856468248992 0.09641957490602461 0.028239169089698458 -0.059400907546840402 0.053585562796888878 0.035252165923655189 0.046950899185669831 -0.031941180241668407 0.013211964832478896 -0.094516302440060845 -0.076462728176153349 -0.079392468148595047 -0.068456521403743031
leaf_weight=48.080738469958305 69.168531641364098 22.444000348448753 51.329148903489113 90.295868694782257 50.268725469708443 61.368580669164658 61.825653970241547 2.4611285775899878 6.4228089749813106 4.944638416171073 2.4819679558277157 8.6054253876209277 52.342192858457565 3.4879810959100741 22.746961951255798 8.6328822076320701 5.9079092890024176 12.496596097946165 15.814521744847299 35.320609718561172 4.7164492309093466 11.133238434791567 3.9589604139327994 4.7133920192718497 19.119480103254318 15.989670366048811 2.9682010561227816 3.9816040396690369 8.2016481161117536 41.196366354823112 50.446312189102173 8.1286289244890231 11.703586444258688 15.571771025657652 6.641699597239497 2.7077955752611151 12.528116449713709 5.3957656174898139 22.102978095412258 25.882132843136787 10.655422583222387 12.106910198926924 4.2292703539133063 7.2160803824663153 133.17730621993542 3.4694323539733887 12.724504023790358 7.6769471615552893 13.825505197048185 4.1967142075300208 3.7387918382883099 12.958582073450087 2.4870338886976233 2.6956509798765174 3.1754059344530132 2.7251993417739859 12.106485739350317 11.398845255374907 3.2199573963880539 9.3988684862852079 4.8891524076461792 2.4281797707080841
leaf_count=198 281 92 208 366 204 247 250 10 26 20 10 35 212 14 92 35 24 51 64 143 19 45 16 19 77 66 12 16 33 166 208 33 48 63 27 11 51 22 89 104 43 49 17 29 538 14 52 31 56 17 15 52 10 11 13 11 49 46 13 38 20 10
internal_value=0 0.00501216 0.00381654 0.0131481 0.00645225 -0.00207917 0.00312109 -0.0227582 -0.00108056 -0.0203916 -0.0119252 -0.0391421 -0.0236605 -0.00753331 -0.000976414 0.0124107 0.00577994 -0.0172278 0.00355345 0.0148641 -0.00398254 0.00670628 -0.00686893 -0.0129669 0.0121021 -0.0132792 -0.0144345 0.0355628 -0.00705365 0.00331829 -0.0167925 -0.00321455 -0.0301628 0.0136298 -0.0250241 -0.00821333 -0.0150502 0.00801559 0.00106275 0.0135759 0.000885823 0.0149315 0.0118109 0.0376938 0.00994733 -0.0213189 -0.0274724 -0.0143492 -0.0209551 -0.0433133 0.00985632 0.0301651 0.0141275 -0.0112506 -0.0242345 -0.0339752 -0.0174454 0.0304167 -0.0487744 -0.0558247 -0.0425995 -0.00926491
internal_weight=0 978.307 955.863 370.093 279.797 585.771 383.318 215.728 210.628 55.2134 202.453 72.6758 97.7166 45.3744 104.736 53.407 155.415 74.3223 149.507 71.6982 36.3776 31.6612 77.8087 20.5279 29.2969 24.5951 143.052 6.44273 30.66 56.5542 136.609 51.5606 19.8322 31.7284 85.0484 34.6021 31.8943 308.996 154.087 85.041 55.722 154.909 142.802 29.3191 138.573 10.1774 25.2526 69.0455 22.4584 16.0776 45.0665 19.1844 15.4456 16.1566 13.4609 21.2545 14.8317 15.3578 6.68939 13.5956 10.2855 5.39638
internal_count=4841 3957 3865 1499 1133 2366 1547 884 852 224 819 299 395 183 424 216 628 301 604 290 147 128 314 83 118 101 585 26 124 228 559 210 81 129 349 141 130 1246 620 342 224 626 577 118 560 41 103 278 91 65 181 77 62 66 55 86 60 62 27 55 42 22
is_linear=0
shrinkage=0.05


Tree=8
num_leaves=63
num_cat=0
split_feature=7 2 9 3 6 3 6 6 0 3 3 8 10 9 7 7 4 4 3 6 7 4 0 3 3 8 9 10 7 4 4 4 7 4 9 8 7 7 8 6 9 9 10 6 4 9 2 6 9 6 8 7 8 8 9 4 0 10 0 4 6 2
split_gain=26.3303 19.548 25.7278 15.2962 19.8539 15.1615 14.9371 12.8381 12.5055 12.4036 11.963 11.8781 11.5179 11.3138 10.8562 10.1265 9.83326 9.54578 7.84208 12.2581 11.3912 7.9961 7.35898 8.8025 7.63722 7.29352 7.3021 7.80407 7.25641 7.07765 6.67785 6.66861 6.79506 8.91987 8.10635 6.65688 10.0027 7.14002 6.43997 6.23898 6.23518 6.19622 6.47644 7.67737 10.4378 7.09418 8.25847 6.96022 6.17363 6.10854 6.07358 6.04046 12.7681 7.0473 5.90395 5.74554 6.61148 5.69376 5.59551 5.57789 8.80285 5.97793
threshold=0.032795698924731158 0.49193338537600834 0.052884761050190507 0.11213965736992022 -2.7499999999999996 0.33842135494287101 5.2500000000000009 -6.7499999999999991 28.500000000000004 -0.13457147874956013 -0.14767316017316101 0.5929064657878218 10.295206971677562 0.17710825284019818 0.043015726179463455 0.22902097902097898 12.844491715181372 10.955389718076287 -0.22990046838407521 4.7500000000000009 0.13840996168582378 13.868115942028988 78.500000000000014 -0.048560696377817694 0.08237258934123122 0.45512082853855002 -1.8333333333333328 11.68027777777778 0.14760348583877994 10.275612193903051 6.1000000000000005 8.0990338164251217 0.29705882352941176 11.169047619047619 -0.071565407772304399 0.63574938574938578 0.10300618921308571 0.25657894736842107 0.64334637964774966 13.250000000000002 0.5352837925891204 -0.039980506822612193 11.094129554655874 -4.7499999999999991 10.275612193903051 -1.381652661064426 0.61483516483516498 -8.2499999999999982 -0.77837435071780436 -8.2499999999999982 0.77459677419354855 0.018693221523410155 0.35429852320675109 0.45512082853855002 -0.33441558441558328 9.8490028490028525 62.500000000000007 10.872517154207296 36.500000000000007 12.072299651567945 8.2500000000000018 0.3708994708994709
decision_type=2 2 2 2 2 2 2 2 2 2 2 2 2 2 2 2 2 2 2 2 2 2 2 2 2 2 2 2 2 2 2 2 2 2 2 2 2 2 2 2 2 2 2 2 2 2 2 2 2 2 2 2 2 2 2 2 2 2 2 2 2 2
left_child=5 2 6 4 12 7 14 9 15 40 28 16 13 -3 57 -6 30 -12 19 20 -4 -21 23 -14 -25 -16 -27 -28 -8 -11 -5 -13 33 34 -33 36 -10 50 -35 -19 -1 42 43 44 -32 46 -44 -46 -47 -15 -37 53 -53 -9 58 -29 -57 -2 -50 60 -30 -61
right_child=1 3 18 11 8 -7 10 51 35 29 17 31 22 49 25 -17 -18 39 -20 21 -22 -23 -24 24 -26 26 27 55 59 -31 41 32 -34 38 -36 37 -38 -39 -40 -41 -42 -43 45 -45 47 48 -48 -49 54 -51 -52 52 -54 -55 -56 56 -58 -59 -60 61 -62 -63
leaf_value=-0.051330156446926525 0.094464320460151699 -0.049193116520715008 0.0036634657892853232 -0.063528176409208326 0.061781502738652995 0.047587651546162048 0.05348011998296729 0.05874648989030138 0.0097770861491618052 -0.070719939348958136 0.023517375639124379 0.066117186316567211 -0.01199707182842575 -0.039745296475405575 -0.025968632439818791 0.014642138067368705 0.044255490889827519 -0.021191622794028756 -0.028705423774576234 0.025675231036821924 -0.059487866980809906 -0.038872636262564632 -0.07050846746647009 0.030855728242893565 -0.03214023630852151 -0.067247375717503569 -0.012868990775453762 0.079116815956319447 -0.0016945908460105357 0.018421817694339867 0.077551954031403081 0.040541518471863297 -0.025334273896383458 -0.0079530154164396596 -0.049146003948556109 0.035916062117728853 -0.028132876251465697 -0.029913049145493698 0.052937112025469135 0.044905210199426039 0.030245204170100494 0.02650217848076851 -0.019788716658171029 0.050136997469785838 0.0145775619706493 -0.086605060211453477 0.09339257936406363 -0.087720669264046758 -0.029706586712172051 0.041509037032438752 -0.042547575558730844 -0.035525251746600775 0.031661030355210361 -0.011341036701818047 -0.034890154130473659 0.002069473636981181 0.076751040334256601 0.010562736738387514 0.046847913299659621 0.010969152024118509 0.076776276940150795 -0.068527113714186419
leaf_weight=16.44280527532101 3.4415362626314145 35.688231512904167 12.941543638706209 2.6892847120761862 16.935106441378593 36.87887804210186 22.429237470030785 19.37442767620087 35.26635554432869 2.4151603430509594 26.56278395652771 3.1813141703605643 102.39895251393318 3.6868332475423813 63.950675964355469 34.812280490994453 35.551314666867256 37.440284565091133 158.11016695201397 26.035443618893627 15.931021407246588 5.881874978542327 4.4247552156448355 24.643523350358013 5.9783043265342704 4.1796536892652503 42.478300899267197 3.6889351457357433 7.4496131241321581 28.539917856454849 2.4914127588272112 3.4827825725078574 29.523878142237663 6.9327076822519329 9.1083463579416293 25.936879888176922 34.345703929662704 6.4115082025527945 11.622012406587599 3.946528732776641 2.7316007465124121 65.528703302145004 3.2339846491813651 12.610786512494085 2.9939496368169785 3.2341000437736538 3.2129776924848557 3.7396269142627716 3.9794232249259966 6.2075183540582639 2.7254718095064154 9.7496920973062497 25.741474732756615 4.4013689756393424 13.095094993710516 21.660345345735553 3.4332882314920417 4.9026359617710114 5.964554950594902 8.9099729359149915 6.8696125745773315 3.2192395478487006
leaf_count=67 14 145 53 11 69 152 91 79 143 10 107 13 414 15 262 141 144 152 646 105 65 24 18 99 24 17 173 15 30 116 10 14 120 28 37 105 139 26 47 16 11 266 13 51 12 13 13 15 16 25 11 40 105 18 53 88 14 20 24 36 28 13
internal_value=0 -0.00278661 -0.010157 0.00355786 -0.0031177 0.0198629 0.000334804 0.0105165 0.00996183 -0.00810774 0.0136949 0.0137574 -0.0142967 -0.036077 -0.0102302 0.0300692 0.0210992 0.000124891 -0.0228373 -0.00757477 -0.0311816 0.01378 -0.0070735 -0.00496342 0.018557 -0.0135464 -0.00301606 0.000751294 0.0325598 0.0114668 0.0143939 -0.00444735 -0.00814752 0.00814421 -0.0243379 2.25376e-05 -0.00892721 0.0177853 0.0301864 -0.0148888 -0.0397089 0.016139 0.00369139 0.0247796 -0.00988447 -0.0103819 0.0366175 -0.0422358 -0.0219147 0.011232 0.028455 0.0262694 0.0132045 0.0457719 -0.0128338 0.0208526 0.0122873 0.0451678 0.016212 0.0148186 0.0359516 -0.0101301
internal_weight=0 1045.1 483.463 561.638 339.461 146.275 264.563 109.396 156.433 50.1295 116.827 222.176 183.028 45.5826 147.735 51.7474 158.325 67.9496 218.9 60.7899 28.8726 31.9173 137.446 133.021 30.6218 139.391 75.4405 71.2609 48.8777 30.9551 122.774 63.851 60.6697 31.1458 12.5911 104.686 69.6121 35.0739 18.5547 41.3868 19.1744 120.085 54.5559 21.8358 9.22499 32.7201 6.44696 6.73358 26.2732 9.89435 28.6624 59.267 35.4912 23.7758 23.0391 28.7826 25.0936 8.34417 9.94398 26.4484 14.3192 12.1292
internal_count=4841 4243 1969 2274 1374 598 1076 446 634 204 473 900 740 185 603 210 641 275 893 247 118 129 555 537 123 569 307 290 198 126 497 259 246 126 51 424 282 142 75 168 78 486 220 88 37 132 26 27 106 40 116 242 145 97 93 117 102 34 40 107 58 49
is_linear=0
shrinkage=0.05


Tree=9
num_leaves=63
num_cat=0
split_feature=1 2 1 7 2 3 6 3 6 6 7 7 3 2 6 1 0 3 7 1 4 8 2 3 2 4 0 4 2 4 1 2 6 8 10 6 8 4 7 8 10 0 6 10 7 5 4 7 8 10 8 4 4 10 10 6 7 8 7 10 0 4
split_gain=48.7876 18.932 17.6191 16.3338 19.4503 17.476 13.4304 12.0162 12.3307 11.6151 18.5329 12.4686 12.8848 11.7319 11.1674 14.0661 17.8567 12.0693 11.814 11.3895 9.88375 9.21992 8.16035 8.12867 7.93269 8.24427 8.01959 9.36482 8.62021 8.5993 7.83368 7.54734 7.19889 7.13809 6.9203 6.68135 7.02363 6.34269 6.25902 6.17641 6.12309 5.88827 5.86029 7.78994 5.81607 5.77501 5.65237 5.57641 5.32398 8.67004 7.91667 6.96059 5.32277 5.31875 5.31773 5.80661 6.70719 10.8434 5.2897 6.10765 6.66755 5.33932
threshold=0.077935222672064763 0.85912698412698429 0.017095265926358804 0.094494047619047616 0.52206359506813771 0.56062370600414113 4.7500000000000009 -0.38740644164372989 -1.7499999999999998 6.2500000000000009 0.069366479550922219 0.11269841269841267 -0.22990046838407521 0.45512082853855002 -2.7499999999999996 0.40833333333333338 13.500000000000002 0.046541905182323207 0.91666666666666685 0.17519181585677748 9.5508620689655199 0.71834935897435914 0.54398864809081537 0.15060429212971638 0.6319659442724459 11.244671201814059 22.500000000000004 10.936835106382981 0.38516483516483518 10.211513157894739 0.043961352657004807 0.47402159244264502 3.2500000000000004 0.71516754850088193 13.385489510489512 1.0000000180025095e-35 0.49305421570519009 10.98571136966728 0.40833333333333338 0.67533783783783796 7.8500000000000005 24.500000000000004 -3.7499999999999996 15.045983086680762 0.079473684210526321 1.0000000180025095e-35 12.23682588597843 0.13484848484848483 0.6044089147286823 12.827665317139003 0.53597308488612849 9.7515432098765462 12.844491715181372 15.240384615384617 12.951800232288038 -5.7499999999999991 0.031498015873015858 0.41223155929038285 0.051503094606542808 11.275552774301213 47.500000000000007 11.038218111002923
decision_type=2 2 2 2 2 2 2 2 2 2 2 2 2 2 2 2 2 2 2 2 2 2 2 2 2 2 2 2 2 2 2 2 2 2 2 2 2 2 2 2 2 2 2 2 2 2 2 2 2 2 2 2 2 2 2 2 2 2 2 2 2 2
left_child=2 3 6 4 54 7 -1 8 44 10 13 34 -13 30 17 16 46 22 -17 24 -8 31 -5 39 26 -26 32 28 -28 48 -4 -19 -18 -14 -11 -12 -37 -24 45 -22 -33 -38 43 -9 -6 -21 -16 -31 50 51 -30 -50 -43 -42 55 56 -2 -58 -44 61 -61 -60
right_child=1 -3 9 14 5 -7 20 42 -10 11 35 12 33 -15 15 18 19 21 -20 38 23 -23 37 -25 25 -27 27 -29 29 47 -32 40 -34 -35 -36 36 41 -39 -40 -41 53 52 58 -45 -46 -47 -48 -49 49 -51 -52 -53 -54 -55 -56 -57 57 -59 59 60 -62 -63
leaf_value=-0.067653048882617237 0.041869644047000609 0.05260101715847687 -0.00076546308133271278 -0.046597257352485599 -0.045670613670150816 0.047834317719655073 0.039781837637339244 -0.00037149883249510866 0.053373482791791452 0.032096624115551524 -0.047201022511297236 0.022293457200720387 -0.039659331870665913 -0.018526447280616098 -0.0089223830943979624 0.047014643343756435 -0.065554020149076728 -0.033721317014546788 -0.067941601204015309 0.019527826073797102 -0.023278881142179658 -0.076245179882289557 -0.035727729682580513 -0.05142716664611751 0.033245922945026207 -0.055405362121828922 0.044491261993950204 0.022441875969939296 -0.033070957721411449 -0.0034035045056345081 0.039691752422766985 -0.045638612036443066 -0.0034006378758385729 0.0045308294573855401 -0.032322720150359495 -0.048350858304360533 -0.067218704086003764 -0.003128960362129095 -0.01417004016593218 0.039453712295815915 0.013392364646070727 -0.013470801487502288 0.047857186262054652 0.089806914723561143 0.01232547753626393 0.051378419825915317 -0.039152377837172458 -0.065637941119919538 -0.083599919171816195 0.062545921392330284 0.066754140399164372 0.011814917147741525 0.040997390146963249 0.077101018452156583 0.054211821419114486 0.035469670318281389 -0.050722065209638428 0.06445023815186432 0.022163009082902838 -0.029095881569089557 0.059432856416276991 -0.052800906244204318
leaf_weight=23.74162657558918 6.6003441363573101 22.145585283637047 26.667530179023743 24.975765109062195 25.97890512645245 22.470440343022346 5.7452097088098517 103.96181355416775 4.4025366306304923 37.757902696728706 36.85111902654171 20.696825817227364 29.174060985445976 42.918473705649376 40.256319120526314 28.352471798658375 6.683442264795306 9.8342083543539029 2.4262346327304831 36.96406215429306 16.198507666587833 3.4397308081388465 21.669572487473488 21.898355439305305 3.4594770371913901 10.840262874960898 6.6645499616861335 66.941165745258331 2.985967084765436 5.4465053379535702 21.70227974653244 4.1883007586002341 15.379150837659834 13.30652019381523 4.686456784605979 18.538782820105553 4.6530229747295371 47.915821805596352 8.4487010985612851 5.1778328120708457 63.501864060759544 50.966248571872711 14.906095847487448 2.4512650966644278 5.185779780149459 23.141601279377937 25.106986850500107 10.613672122359274 4.7028479874134046 2.4654030054807663 5.9312960505485535 3.2202330082654953 4.9181282818317404 3.4542733728885642 24.136035576462746 50.789056807756424 8.1896619051694852 2.7232214212417594 4.209359750151636 2.9455268681049329 7.6522667557001114 5.4516581892967224
leaf_count=102 27 92 110 102 106 92 23 420 18 153 153 84 119 176 163 116 27 40 10 150 66 14 88 90 14 44 27 270 12 22 89 17 62 54 19 76 19 193 34 21 256 208 61 10 21 94 102 43 19 10 24 13 20 14 99 207 33 11 17 12 31 22
internal_value=0 0.00701272 -0.0146243 0.00572015 0.0150763 0.00629558 -0.036786 0.0010265 -0.0249549 -0.00946984 -0.0163482 0.00402466 -0.0100563 0.000502383 0.000132328 0.00587332 0.00233757 -0.00981229 0.0379528 0.00932706 -0.0218363 0.00392965 -0.0220802 -0.0300168 0.00140271 -0.0339583 0.00526166 0.0108274 -0.00767069 -0.0175004 0.0173866 0.00733524 -0.0222288 -0.0258173 0.0249838 -0.0296175 -0.0214232 -0.0132805 0.0261265 -0.00808363 0.0130104 -0.0131769 0.00755354 0.00170579 -0.0360201 0.0317908 -0.0205342 -0.0445323 0.0049871 -0.0193397 0.0333275 -0.0448198 -0.00867731 0.0166791 0.0340378 0.0269089 0.00208241 -0.0219818 0.0252495 0.00861516 0.0348274 -0.0201387
internal_weight=0 803.209 385.599 781.064 292.054 199.616 72.7615 177.145 35.5672 312.837 207.216 105.622 63.1774 91.2883 489.01 310.03 279.252 178.98 30.7787 213.888 49.0199 84.4184 94.5612 43.2747 145.334 14.2997 131.034 108.972 42.0305 35.3659 48.3698 80.9786 22.0626 42.4806 42.4444 115.927 79.0762 69.5854 68.5544 21.3763 71.1444 60.5374 141.578 106.413 31.1647 60.1057 65.3633 16.0602 19.3057 10.3885 8.91726 7.92308 55.8844 66.9561 92.4383 68.3023 17.5132 10.9129 35.1649 20.2588 10.5978 9.66102
internal_count=4841 3259 1582 3167 1187 810 302 718 145 1280 851 429 257 375 1980 1256 1130 724 126 865 200 341 383 177 587 58 529 440 170 143 199 327 89 173 172 476 323 281 278 87 287 247 573 430 127 244 265 65 78 42 36 32 228 270 377 278 71 44 143 82 43 39
is_linear=0
shrinkage=0.05


Tree=10
num_leaves=63
num_cat=0
split_feature=1 6 2 7 6 9 2 1 6 1 9 6 10 6 7 2 7 2 7 7 1 10 7 9 6 4 7 4 6 0 10 1 8 0 10 5 1 7 4 1 0 7 10 2 4 8 2 9 9 7 2 8 7 1 9 7 0 1 7 0 4 9
split_gain=44.7575 19.5936 18.9208 17.0681 19.7283 13.004 12.2572 15.0896 11.9644 11.4894 10.7845 10.6867 10.2955 10.1038 9.65929 11.0612 9.37583 9.25516 8.51618 8.07697 8.42956 8.0504 7.89709 7.5966 14.6345 8.22172 8.66995 8.04564 7.58985 7.54452 7.541 7.15266 7.99183 7.54569 7.37408 6.98631 6.92306 11.2434 6.73834 6.58444 6.79263 6.91061 6.25752 6.57942 12.0943 7.4405 6.25674 6.21821 8.74549 6.2092 6.05051 7.19663 6.53265 6.03248 5.93625 5.92673 9.39418 5.95179 7.82222 6.26721 6.01198 5.90838
threshold=0.045983086680761058 3.7500000000000004 0.85912698412698429 0.13100686498855832 -1.7499999999999998 0.12763818094934723 0.58554006968641126 0.23669467787114842 -2.7499999999999996 0.11269841269841267 -0.16666666666666688 -2.7499999999999996 8.6887464387464401 -9.2499999999999982 0.048003072196620554 0.56550343249427926 0.069366479550922219 0.62910052910052927 0.043015726179463455 0.15894736842105264 0.4494949494949495 14.661390827517447 0.040408163265306107 0.025500852514918255 7.7500000000000009 6.7459893048128352 0.77500000000000013 10.570524412296566 10.250000000000002 58.500000000000007 10.841342486651413 0.10435571687840285 0.52843665768194081 45.500000000000007 11.025657894736844 1.0000000180025095e-35 0.14907407407407408 0.36931818181818182 10.770691333982475 0.14087301587301587 63.500000000000007 0.029631255487269501 9.1558704453441297 0.40765107212475632 12.072299651567945 0.51974025974025984 0.81892697466467979 -0.16666666666666688 -0.076881451881452387 0.13714733542319749 0.5629401408450706 0.69467984934086646 0.20416666666666669 0.39230769230769236 0.26409008877182766 0.11583184257602856 25.500000000000004 0.087595907928388714 0.034190531852717657 63.500000000000007 9.210101867572158 -0.055322128851540343
decision_type=2 2 2 2 2 2 2 2 2 2 2 2 2 2 2 2 2 2 2 2 2 2 2 2 2 2 2 2 2 2 2 2 2 2 2 2 2 2 2 2 2 2 2 2 2 2 2 2 2 2 2 2 2 2 2 2 2 2 2 2 2 2
left_child=1 18 3 4 5 13 8 17 -5 16 29 19 -12 61 15 -15 -6 -8 38 20 -9 46 -14 24 35 -25 36 -26 -24 -3 -30 33 34 -16 -33 -10 50 54 -1 47 41 -41 -18 44 -44 -46 -21 -17 -49 -19 51 -27 -53 -39 -38 57 -57 58 -7 60 -59 -2
right_child=2 10 -4 6 9 55 7 11 23 -11 12 -13 22 14 31 39 42 49 -20 21 -22 -23 28 25 27 26 -28 -29 30 -31 -32 32 -34 -35 -36 -37 37 53 -40 40 -42 -43 43 -45 45 -47 -48 48 -50 -51 -52 52 -54 -55 -56 56 -58 59 -60 -61 -62 -63
leaf_value=-0.056164779673580204 -0.031859248369156684 -0.0047583515420890933 0.050453509945042302 -0.030062834593282857 0.033931310281398702 0.029998458256616591 0.0098913202410610065 0.066321191325927675 -0.019941850204872408 0.041731795848796889 0.081825771737183306 0.040863575817321494 0.03156662839983914 0.038673892996819538 0.01329226006454535 -0.064062229406790128 0.081026442281715641 0.040885974383052193 -0.052960366410127024 -0.017092295436593175 -0.030865200655304032 0.060676693897918757 -0.035025070743250633 0.065763741717515131 0.076296503075269473 -0.029877476726877458 -0.071024783157143681 0.018697024698969812 0.047057491541338037 0.040378620771922134 -0.016374198662564631 -0.026493400238180743 0.035052098800674746 -0.040538852210037807 0.0097392864961687586 0.0080406838340366504 0.082690439341727845 -0.036808802396855494 0.0048589716348906862 -0.040746086937429024 0.08104039435623013 0.028361456146229116 0.051218600509164151 -0.011017249605655317 -0.064078598344144075 0.039107096596856468 0.047327658099874104 0.066838209364654774 -0.035175031498122004 -0.042276549608543601 -0.090127344159251346 0.066731494280681744 -0.0079696225798268818 0.019302912733905185 0.014690587083411772 -0.090739540063786456 0.01650406722058257 -0.043224293557679261 -0.032729282892879671 0.051827188762322667 0.022835669085678242 0.0031564829732346218
leaf_weight=6.6927543282508877 41.759255692362785 24.543348029255867 21.939048886299133 56.455817505717278 38.294731080532074 9.2134852558374423 21.482377707958221 9.1666266173124296 44.209223166108131 58.73226036131382 2.4935839623212805 37.380139216780663 6.6585844457149497 31.510244816541672 8.8583176881074888 6.412984535098075 2.4738064706325522 2.4794600903987911 51.147941321134567 36.137915939092636 2.9489609897136679 4.4240076988935462 61.492701441049576 3.2254371196031562 8.2653858512640017 45.218104839324951 6.5630387365818015 22.749214738607407 5.7263114005327251 14.864799320697783 25.778694823384285 25.664063826203346 14.394126594066618 24.555171757936478 31.010636076331139 45.02055461704731 3.7247139811515835 18.670021340250972 13.958293884992598 5.645131632685664 3.4473536461591712 10.071303158998488 13.566314250230791 43.990230351686478 4.9233328700065604 2.7079570591449738 4.2080898582935324 3.2028306126594535 6.1066352277994147 23.68583320081234 3.1711230725049964 3.7145168036222485 13.798811241984366 6.4428996890783301 23.202558487653732 3.1898544728755933 5.6746659129858017 3.6625309288501731 10.790597930550573 18.892221331596375 57.760252699255943 16.931704625487328
leaf_count=29 170 99 92 231 158 38 87 37 179 241 10 154 27 129 36 26 10 10 222 146 12 18 252 13 34 184 27 92 23 60 106 104 58 100 125 182 15 76 56 23 14 41 55 178 20 11 17 13 25 96 13 15 56 26 94 13 23 15 44 77 235 69
internal_value=0 -0.0207429 0.00454723 0.00348685 0.00979801 0.00289673 -0.00363165 0.00850399 -0.00928879 0.0239935 -0.00995184 0.0200955 -0.0185237 -0.00385926 0.0022882 0.0172006 0.014161 -0.0144286 -0.0420185 0.00644864 0.0426658 -0.00335239 -0.0210347 -0.00455923 0.00446046 -0.0130502 -0.015092 0.0340473 -0.0248009 0.0122674 -0.00484493 -0.00718834 0.0017819 -0.0262676 -0.006668 -0.00582337 -0.0119795 0.00165263 -0.0149181 -0.00219471 0.0174806 0.00353896 0.00297155 9.455e-06 0.0228926 -0.0274632 -0.0103733 -0.0261766 -7.83744e-05 -0.034396 -0.0227442 -0.019338 0.00787423 -0.0224129 0.0240967 0.0171019 -0.022087 0.0205647 -0.00383813 0.0266428 0.0188966 -0.0217576
internal_weight=0 213.357 971.726 949.787 503.442 338.753 446.345 141.913 304.431 164.689 141.558 94.2657 102.15 229.57 170.879 66.3965 105.956 47.6477 71.799 56.8856 12.1156 44.77 99.6563 247.976 120.244 127.731 124.506 31.0146 92.9977 39.4081 31.505 104.482 71.0688 33.4135 56.6747 89.2298 117.943 52.0402 20.651 34.8862 19.1638 15.7164 67.6616 65.1878 21.1976 7.63129 40.346 15.7225 9.30947 26.1653 65.9026 62.7314 17.5133 25.1129 26.9273 109.184 8.86452 100.319 20.0041 80.315 61.4228 58.691
internal_count=4841 884 3957 3865 2051 1378 1814 577 1237 673 577 384 418 933 694 271 432 193 307 230 49 181 408 1006 487 519 506 126 381 159 129 423 287 136 229 361 479 211 85 142 78 64 274 264 86 31 163 64 38 106 268 255 71 102 109 445 36 409 82 327 250 239
is_linear=0
shrinkage=0.05


Tree=11
num_leaves=63
num_cat=0
split_feature=1 2 1 6 10 8 6 10 9 6 3 1 0 4 9 4 3 3 2 1 1 3 0 2 1 2 10 9 6 3 6 1 8 8 4 8 0 1 2 3 8 6 8 10 0 4 9 5 4 1 4 6 8 1 0 9 3 6 4 4 10 5
split_gain=40.9409 15.752 15.5366 12.2143 11.4377 9.94655 9.93801 11.6525 16.2694 9.43433 32.9795 15.0302 18.7638 11.688 14.0447 11.4576 8.51696 8.46732 8.29964 9.79371 9.24082 7.34604 7.19411 8.34116 11.1598 9.04706 7.15936 7.1569 6.98213 8.13893 7.98473 6.50524 6.412 7.60172 7.04334 7.29446 6.42803 8.62221 9.32017 7.80432 6.38367 6.2368 8.20773 7.3874 6.17039 6.13911 6.15164 6.09759 5.8767 5.75202 5.47011 5.44724 7.04372 6.45448 6.33304 5.40645 5.64414 6.00111 7.40399 5.43399 5.39838 5.82157
threshold=0.077935222672064763 0.85912698412698429 0.017095265926358804 2.7500000000000004 8.589713617767389 0.96153846153846179 6.2500000000000009 10.826505016722409 -0.14397348683062985 -2.7499999999999996 -0.30409436501873527 0.43650793650793651 13.500000000000002 9.210101867572158 -0.037930994074889243 10.828266787658803 0.22860818131519786 0.15060429212971638 0.65166835187057648 0.17316341829085458 0.32291666666666669 -0.25169444836564459 24.500000000000004 0.56030303030303041 0.051503094606542808 0.3708994708994709 14.574175824175827 -1.2997326203208555 4.7500000000000009 -0.90660130099785252 -1.2499999999999998 0.18634259259259259 0.51087470449172578 0.45260557053009892 10.936835106382981 0.52843665768194081 41.500000000000007 0.087595907928388714 0.39003720545680037 -0.18041086297532688 0.62409420289855089 -8.2499999999999982 0.57043650793650802 10.410046237915092 31.500000000000004 12.23682588597843 0.71002506265664256 1.0000000180025095e-35 11.228320802005014 0.5277777777777779 11.244671201814059 5.2500000000000009 0.63574938574938578 0.29705882352941176 11.500000000000002 -0.076881451881452387 -0.024959693179597196 13.250000000000002 11.343303571428573 10.430501930501931 10.137592968221773 1.0000000180025095e-35
decision_type=2 2 2 2 2 2 2 2 2 2 2 2 2 2 2 2 2 2 2 2 2 2 2 2 2 2 2 2 2 2 2 2 2 2 2 2 2 2 2 2 2 2 2 2 2 2 2 2 2 2 2 2 2 2 2 2 2 2 2 2 2 2
left_child=2 5 3 -1 -5 9 22 16 44 10 15 12 45 -12 26 -2 -8 40 20 50 21 27 -4 24 -24 48 49 -14 29 31 -31 -29 33 -23 -34 -36 37 -37 -39 -38 -6 43 -43 -17 -9 46 51 -21 -26 -15 -20 52 53 -11 -53 -10 57 58 59 -57 -40 -62
right_child=1 -3 6 4 17 -7 7 8 55 11 13 -13 18 14 -16 41 -18 -19 19 47 -22 32 23 -25 25 -27 -28 28 -30 30 -32 -33 34 -35 35 36 39 38 60 -41 -42 42 -44 -45 -46 -47 -48 -49 -50 -51 -52 54 -54 -55 -56 56 -58 -59 -60 -61 61 -63
leaf_value=-0.07284047581838142 -0.047600130981184777 0.048435139079799787 -0.054152299929717151 0.081937942095374985 -0.024231980592274247 -0.064907542549747926 0.052058013558290178 -0.021289039093174398 -0.07907787693457613 -0.031267165020841696 -0.026241638304414658 0.048898116987419013 -0.032464477730600454 -0.00038995689534061773 0.024037325446630661 -0.076078496393450393 -0.0117275963922302 -0.047106582570489886 0.024038609843621966 -0.0012293539191563024 0.077507925060454841 0.0078880836753913285 -0.020889020019097541 -0.04193167053014181 0.080152439313359594 -0.0032967371523267407 0.049545868095668445 -0.039583534580566369 0.050031751825660525 0.074020339293198609 0.019325279093750685 0.03386686225131267 -0.013210110336224715 0.045075226229473742 -0.045257555203734277 -0.075359380227958184 -0.037151853174180051 0.098823739622401985 0.051007956784095643 0.045818789260183068 0.030080114968079819 0.0075505754414686363 -0.044237887137125245 -0.01669078221108854 0.036060780495867112 -0.03310606028514293 -0.02223020335415726 0.064714610285009272 0.014789925604495805 -0.063618638735579158 -0.058801005001478814 0.06822060127035294 -0.078615675181589656 0.057868823975212369 -0.014159152391853525 -0.026856058402401406 -0.034895576604838274 0.060478905332084693 -0.042717813617116115 0.047967952268812425 -0.0354239061126412 0.019720991942098351
leaf_weight=16.07101996243 32.644647151231766 21.716318562626839 11.109163239598272 2.4650666415691367 17.170802772045139 5.0179029554128638 17.926497966051105 5.8855901211500194 3.9019614160060874 3.9651776850223559 21.10904648900032 24.819925218820572 4.6905623674392691 114.44299075007439 129.25382032990456 6.9318678975105312 7.3910345137119284 28.051171436905861 2.4602213948965064 18.099041655659679 6.2388100624084464 33.570446893572807 92.816926166415215 21.790573447942734 5.6628910005092612 65.355237573385239 7.0340762287378302 8.6279835104942304 30.462792426347733 8.5797625780105538 30.020824626088146 4.6333145052194586 43.241593167185783 23.267316922545433 4.9221211969852439 3.2008234113454845 3.2191857546567944 2.7407342046499279 4.4602181613445309 23.697126731276512 7.8991549164056769 41.648223623633385 9.3722755759954435 21.409969314932823 23.091794446110725 27.381382465362549 20.56398443877697 4.3475281596183768 8.7561950683593732 3.7136522978544226 10.488438948988913 7.1802400201559049 2.7161232978105536 4.1633770167827606 3.4558463394641876 3.9870234429836326 23.845940932631493 3.4616334438323966 9.4789738208055478 6.1993981599807739 10.395667523145676 8.8691414445638657
leaf_count=72 134 92 46 10 71 21 73 24 16 16 86 103 19 463 527 29 30 117 10 74 26 138 388 90 23 268 29 35 124 35 122 19 176 95 20 13 13 11 18 96 32 169 38 87 94 112 84 18 36 15 43 29 11 17 14 16 98 14 39 25 42 36
internal_value=0 0.00643414 -0.0134619 -0.0344488 -0.0233491 0.00526035 -0.00862102 0.00387947 -0.00549183 0.0057164 0.000211213 0.0112657 0.00866872 0.00951033 0.0124764 -0.022666 0.0334369 -0.0282349 0.0142543 -0.00843311 0.0174055 0.0158972 -0.0150187 -0.0127822 -0.00910194 0.00461225 0.000540168 0.0276096 0.0310324 0.0198725 0.0314824 -0.013921 0.00958984 0.0231111 0.00225289 0.0131243 0.0182029 0.00215048 0.0115247 0.0358955 -0.00711908 -0.0124096 -0.00196277 -0.0312159 0.0244125 -0.0146818 -0.00268317 0.0115429 0.0404601 -0.00237723 -0.0430616 0.0160296 -0.00890575 0.0143875 0.041454 -0.0225248 -0.017827 -0.000227809 -0.0109138 0.0186814 0.00143982 -0.0100363
internal_weight=0 798.775 382.318 71.6572 55.5862 777.058 310.661 105.17 79.8523 772.04 387.561 384.48 359.66 275.554 254.445 112.007 25.3175 53.1211 290.234 35.3952 254.838 248.6 205.491 194.382 172.591 79.7743 125.191 87.0152 82.3247 51.8619 38.6006 13.2613 161.584 56.8378 104.747 61.505 56.5829 29.6666 26.4658 26.9163 25.07 79.3623 51.0205 28.3418 28.9774 69.4261 42.0447 22.4466 14.4191 118.157 12.9487 21.4808 10.8447 8.12855 10.6361 50.8749 46.973 23.127 19.6654 10.1864 23.725 19.2648
internal_count=4841 3259 1582 302 230 3167 1280 429 326 3146 1577 1569 1466 1120 1034 457 103 220 1183 145 1038 1012 851 805 715 327 507 354 335 211 157 54 658 233 425 249 229 120 107 109 103 323 207 116 118 283 171 92 59 478 53 87 44 33 43 208 192 94 80 41 96 78
is_linear=0
shrinkage=0.05


Tree=12
num_leaves=63
num_cat=0
split_feature=1 7 3 2 1 6 4 1 0 3 6 1 2 7 3 8 1 6 3 6 10 4 2 8 7 2 8 9 6 1 0 3 6 7 2 8 6 4 6 0 7 4 3 4 9 0 3 8 6 4 0 0 2 9 10 7 1 4 0 3 6 1
split_gain=37.1027 14.8556 18.6999 19.4729 14.2719 12.4536 11.5329 11.2972 9.81705 9.47431 10.4319 9.45131 9.23606 9.1623 9.4853 8.89739 8.85949 8.64475 9.92265 8.00228 10.9251 10.9256 7.84364 8.67885 7.22921 8.11604 7.22918 7.07792 13.632 8.74152 7.05968 7.05228 6.94225 6.93906 6.88834 6.73104 7.011 6.42725 12.7385 7.28704 6.30043 6.26849 6.1137 7.65039 6.10708 7.18704 9.55359 6.46052 6.0546 5.99465 5.81553 5.74679 8.39115 6.57137 6.18912 5.69313 8.9057 5.66487 5.66106 5.43989 8.67839 6.30562
threshold=0.077935222672064763 0.094494047619047616 0.52722649025465984 0.5078144078144079 0.016530054644808705 6.2500000000000009 9.3357843137254921 0.5634920634920636 11.500000000000002 -0.38740644164372989 -7.2499999999999991 0.42261904761904762 0.41486424298205249 0.10762548262548262 -0.25169444836564459 0.57719393282773568 0.23303167420814477 -2.7499999999999996 0.97195409695409662 -4.7499999999999991 10.914589665653498 15.788602941176473 0.62910052910052927 0.45738498789346249 0.24404761904761904 0.14642857142857144 0.55907278165503504 -0.037930994074889243 -4.7499999999999991 0.12973352033660587 61.500000000000007 -0.16968701796287974 -10.249999999999998 0.018693221523410155 0.32910783055198972 0.79698822463768126 -5.7499999999999991 11.467375886524826 3.7500000000000004 68.500000000000014 0.13100686498855832 10.598076923076926 -0.053199685534590993 10.688194444444447 1.8045893719806758 20.500000000000004 0.12522949816401499 0.61791443850267391 -4.2499999999999991 10.099382716049385 24.500000000000004 67.500000000000014 0.52041666666666686 -0.33004329004329053 11.049590163934427 0.058257918552036152 0.15707236842105263 6.7459893048128352 52.500000000000007 -0.085714285714286229 -4.2499999999999991 0.1188235294117647
decision_type=2 2 2 2 2 2 2 2 2 2 2 2 2 2 2 2 2 2 2 2 2 2 2 2 2 2 2 2 2 2 2 2 2 2 2 2 2 2 2 2 2 2 2 2 2 2 2 2 2 2 2 2 2 2 2 2 2 2 2 2 2 2
left_child=4 2 3 -2 5 -1 -7 8 11 10 -5 34 13 15 26 33 22 44 -19 20 21 -9 23 -10 -8 -26 -15 28 -11 58 31 -31 -24 -6 -3 36 41 38 48 -40 42 -13 43 49 45 -18 47 50 -35 -25 -47 53 -53 54 -14 -12 -57 -36 -29 60 -42 -61
right_child=1 7 -4 9 12 6 24 19 16 27 55 35 51 14 -16 -17 17 18 -20 -21 -22 -23 32 40 25 -27 -28 29 -30 30 -32 -33 -34 37 57 -37 -38 -39 39 -41 59 -43 -44 -45 -46 46 -48 -49 -50 -51 -52 52 -54 -55 -56 56 -58 -59 -60 61 -62 -63
leaf_value=-0.059107995456472995 0.03259645821059258 0.00019563870977877906 0.043695248677502685 -0.05014044338873918 0.049484329868588632 0.078697832256758457 -0.035956571966995629 -0.066759382306988704 -0.020678398282043719 -0.018900753175550258 -0.021134619731117042 -0.071681206412060758 -0.041021133322717292 -0.022038034815942908 -0.025713486539491948 0.055819516926385419 -0.024169694184250717 0.043261299352990709 -0.018121266531134748 0.047707896834431107 0.036115715177646751 0.038911843666864343 0.05992959068408741 0.014921411973872338 -0.034386920289253935 0.054980645650354334 0.033671261276097056 -0.056159009759904371 0.026683616836632552 0.063900833704450044 0.064375290459927625 0.0061257340014067262 -0.026106685253918922 0.031434308657807365 0.035220653366511367 -0.05662895476013368 0.033035387843114071 -0.014743912873830532 0.067429669118427432 -0.0057945200572000035 -0.042463779660394357 0.018224056779384611 0.046867963847950472 0.027189874986773045 0.078585178861471136 0.032917837930579688 0.052753181964491483 0.064808370250161201 -0.032146752722653264 -0.080520012662219517 -0.034609459263555263 0.012343811287323659 -0.029050452534055041 -0.031600099266146778 0.015921282904011406 -0.029804867535463572 0.069541937284167105 -0.039282608575532625 0.0062496462762273233 -0.024681562575352423 0.018227076234125426 0.0048891283505477483
leaf_weight=27.932851821184158 67.020616888999939 18.787270903587341 47.50936433672905 17.053996130824089 7.9763901382684699 2.9825855791568747 29.151067197322845 7.3271505534648913 36.351737052202225 49.992638632655144 11.538377583026888 3.6054165065288606 6.7823348492383984 9.4421814680099505 48.992175728082657 9.8019047528505308 21.210549771785736 35.302996844053268 8.0931446701288206 20.581405878067017 13.091532438993452 3.6719262897968292 2.4804568737745276 2.9709877073764828 4.7959604859352094 5.4022046774625778 15.194223582744597 4.2122056186199215 24.408554717898369 6.8746623694896725 12.447136044502257 22.79716719686985 42.822044029831886 5.2870497852563885 2.6959493458271018 3.5647444427013388 18.838643699884415 35.386487573385239 12.082876622676851 4.7268564701080313 6.5716713666915885 4.1942305266857147 16.707474604249001 13.979951232671736 2.4726426601409903 4.2367404848337271 10.349340721964834 2.7387138307094565 12.831725239753721 3.6869790405035019 12.885261878371237 31.519214972853661 20.018445521593094 74.334746867418289 16.099042952060699 3.6787075847387296 5.832017257809639 47.58771625161171 26.457051366567612 32.099808856844902 56.804290562868118 41.123916462063789
leaf_count=124 276 77 199 71 33 12 121 30 148 202 47 15 28 39 202 40 86 146 33 87 54 15 10 12 20 22 62 17 100 28 51 93 174 22 11 15 77 146 49 19 27 17 68 57 10 17 42 11 55 15 52 130 83 309 66 15 24 195 108 131 230 166
internal_value=0 0.00612948 0.0149188 0.00950028 -0.0128456 -0.0331946 -0.0160955 0.000825455 -0.00154439 0.00114635 -0.0210751 -0.0154348 -0.0082404 3.04318e-05 -0.0129873 0.0109107 0.00236322 0.0152043 0.0318138 0.0248126 0.00525248 -0.0314822 -0.00252452 0.00154079 -0.0232806 0.0129532 0.01232 0.00689885 -0.00394604 0.0179841 0.0327699 0.0195116 -0.0213959 0.00528822 -0.0256366 0.00789555 0.0165302 0.000274702 0.0154902 0.0468392 0.00618424 -0.023335 0.0243836 0.00618129 0.00183001 -0.00186089 0.0138022 -0.00649503 -0.0135938 -0.0379311 -0.0179002 -0.0172323 -0.0037347 -0.0243878 -0.000957182 0.0024736 0.031115 -0.0352881 -0.00232174 0.00120868 0.0119338 -0.00807407
internal_weight=0 796.657 299.822 252.313 380.74 70.2647 42.3318 496.835 452.163 185.293 38.1031 99.274 310.476 161.722 73.6286 88.0933 352.889 97.2894 43.3961 44.672 24.0906 10.9991 255.599 210.297 39.3492 10.1982 24.6364 147.189 74.4012 72.7882 42.119 29.6718 45.3025 78.2914 69.0709 30.203 26.6383 70.315 34.9285 16.8097 173.945 7.79965 37.3454 20.6379 53.8932 51.4206 30.2101 19.8607 18.1188 6.65797 17.122 148.754 51.5377 97.2161 22.8814 21.0491 9.51072 50.2837 30.6693 136.6 63.376 73.2237
internal_count=4841 3259 1231 1032 1582 299 175 2028 1842 756 157 407 1283 667 303 364 1435 397 179 186 99 45 1038 854 163 42 101 599 302 297 172 121 184 324 283 124 109 291 145 68 706 32 152 84 218 208 122 80 77 27 69 616 213 403 94 86 39 206 125 554 257 297
is_linear=0
shrinkage=0.05


Tree=13
num_leaves=63
num_cat=0
split_feature=1 6 7 6 3 6 3 7 1 9 2 8 10 9 5 1 6 10 1 7 3 9 0 10 2 7 8 1 3 9 6 9 5 6 7 10 0 8 10 9 1 9 10 8 3 1 10 3 1 0 3 7 7 2 1 0 1 7 8 1 8 10
split_gain=34.4041 16.3913 16.0452 14.3424 12.3179 11.0758 20.4035 15.4366 13.2579 13.2285 9.93443 9.66208 9.23945 9.05413 8.46823 8.87235 8.31338 8.10154 7.90074 12.951 7.90564 7.86317 8.8331 7.72909 7.92997 7.57398 7.09588 7.3352 6.88326 7.15678 6.56666 7.05717 6.91902 6.47632 8.4279 6.47335 6.41754 6.24735 6.18803 6.13692 6.53379 6.09044 6.05783 6.0455 5.79633 5.54328 5.51188 9.17365 5.78491 5.36657 6.17245 7.33738 5.46031 5.30614 5.87711 5.30009 5.18303 5.15674 6.8605 5.66712 5.15019 5.13442
threshold=0.045983086680761058 3.7500000000000004 0.032795698924731158 -6.7499999999999991 -0.13457147874956013 -2.2499999999999996 0.046541905182323207 0.069366479550922219 0.40833333333333338 0.025500852514918255 0.4818121693121693 0.71199280945043675 7.8500000000000005 -0.16666666666666688 1.0000000180025095e-35 0.20416666666666669 7.7500000000000009 8.6887464387464401 0.12310606060606062 0.36931818181818182 -0.24154543791029051 -0.54208875415771984 21.500000000000004 10.295206971677562 0.51136950904392775 0.043015726179463455 0.59053651266766038 0.12310606060606062 0.26233903475751319 0.8620057339569539 10.250000000000002 0.35657723164516675 1.0000000180025095e-35 -8.2499999999999982 0.043961352657004807 9.7303030303030322 58.500000000000007 0.27207792207792209 15.33809523809524 -0.096474495208672892 0.097167584579071611 -0.44576923076923153 11.049590163934427 0.55625879043600579 -0.62705583490467187 0.10620300751879695 11.862284482758623 -0.41162397973543458 0.23669467787114842 78.500000000000014 -0.044507204736407645 0.073622402890695507 0.037386443046820358 0.49691358024691362 0.035098522167487656 13.500000000000002 0.077935222672064763 0.13840996168582378 0.71199280945043675 0.2817460317460318 0.36700680272108849 11.130791161796154
decision_type=2 2 2 2 2 2 2 2 2 2 2 2 2 2 2 2 2 2 2 2 2 2 2 2 2 2 2 2 2 2 2 2 2 2 2 2 2 2 2 2 2 2 2 2 2 2 2 2 2 2 2 2 2 2 2 2 2 2 2 2 2 2
left_child=1 25 3 4 45 6 23 10 9 16 -7 -10 -8 36 15 -14 35 -15 20 57 43 -17 -23 33 37 53 56 -28 29 30 31 -19 -32 -4 -35 39 -3 -25 -13 40 -9 -6 -43 -11 -5 -2 -37 -48 -49 50 52 -52 -26 54 -1 -50 -16 -20 59 -59 -47 -39
right_child=2 13 5 44 41 7 12 8 11 18 -12 38 14 17 26 21 -18 28 19 -21 -22 22 -24 24 49 -27 27 -29 -30 -31 32 -33 -34 34 -36 46 -38 61 -40 -41 -42 42 -44 -45 -46 60 47 48 55 -51 51 -53 -54 -55 -56 -57 -58 58 -60 -61 -62 -63
leaf_value=-0.015350166871761193 -0.076424747941221657 -0.0038454727073304294 -0.063619879906067628 -0.022779666983479469 -0.058893169440488113 0.059615927120656366 -0.046059413736016568 -0.087938102930255085 0.050201567156634846 -0.029302249615332839 0.011480847469805858 0.025934754781545319 -0.028876542387839821 0.0729961617140579 -0.015458831048426901 -0.02616325851455269 0.02977039672658495 -0.022485447570907716 0.038844499100824 -0.024050768658600955 -0.029411210003261263 0.0058220127754542465 0.076337992205986971 -0.071686629079723493 -0.065419935630443099 -0.048809788731259671 -0.072596824770736187 0.0060083910407415266 -0.037645977188106181 -0.065515362270034599 0.035329110033021922 0.038842699163408281 -0.049665789776500865 0.05004352293754525 -0.029005296577449925 0.01721713246373209 0.037886609293042571 -0.048608529360045727 -0.069479836267991327 0.036156674175896734 -0.016398786718694276 -0.0048301383537241475 0.035926880784046614 0.020736071025804003 0.041859866927374895 0.0047080427213784248 0.030010763608579322 -0.020009934588314102 -0.021515143777510636 -0.072489241390408896 0.064996284254577416 -0.0023960333962155973 -0.003506266576337522 -0.070500279645809752 0.060059652570537615 0.071033580824419559 0.028432625770755327 -0.011108315362371356 0.06719993738135803 0.038466873175415327 -0.071801369631783379 -0.0071928148779771195
leaf_weight=13.922531157732015 5.0380088239908245 24.450223177671432 12.065532624721525 3.689973607659339 2.4448099583387366 21.242796003818512 7.4756228029727927 4.1372435092926088 24.105731233954433 9.2713126540184039 21.637353286147118 3.7732372730970374 23.14117543399334 2.4710597246885291 7.3321823775768271 8.874509736895563 41.620511665940285 38.395067855715752 17.177874773740768 31.394620537757874 60.884479954838753 12.628496780991556 6.849792703986167 6.8483123928308478 3.7011664956808081 49.197867542505264 3.6088935732841518 16.70978020131588 32.173985540866852 5.2453871667385092 14.53142023086548 5.3436990678310385 2.8667851388454428 3.6958685219287863 38.460841208696365 82.055149987339973 14.781766176223753 10.667818069458006 3.0915439277887344 3.933423548936843 13.964468762278555 13.675434023141859 27.351343676447868 17.299107164144516 57.689730435609818 9.0467974245548231 16.389492213726044 41.915321126580238 2.7095444947481147 2.693951115012168 7.2225254327058819 9.1626914590597135 94.098212346434593 3.3121943771839133 3.1724841296672812 3.6054462343454361 81.371455311775208 28.325173735618591 4.1114961057901374 7.2376407682895652 2.9061115980148307 25.069792211055756
leaf_count=58 21 99 51 15 10 89 31 17 102 38 89 16 94 10 30 36 171 158 71 129 250 52 28 28 15 222 15 68 135 22 59 22 12 15 158 334 60 44 13 16 57 56 114 70 244 37 67 171 11 11 29 37 383 14 13 15 332 115 17 30 12 103
internal_value=0 -0.0183513 0.0039896 0.0209479 0.00366364 0.00153436 -0.00476198 0.00675999 0.00382247 0.00129724 0.0353269 0.0352982 0.00827622 -0.00850748 0.0108068 -0.00590361 0.00975684 -0.0164239 -0.00882964 0.00172536 -0.0194802 0.0128466 0.0306199 -0.0150121 -0.00946709 -0.0381872 0.0186995 -0.00795304 -0.0186659 -0.00946666 -0.00465783 -0.0149928 0.0213241 -0.0313196 -0.0220751 0.00481952 0.0118783 -0.0279389 -0.0170351 -0.0204493 -0.0327495 0.0177728 0.0223414 0.00327602 0.0379739 -0.0324349 0.00861568 -0.00230657 -0.0132886 -0.00273671 -0.00109104 0.0273102 -0.00584936 -0.0125782 -0.00135565 0.0313241 0.0248046 0.0159593 0.00605068 -0.00101892 -0.0138937 -0.0195556
internal_weight=0 209.864 963.404 121.842 60.4625 841.562 381.679 459.883 417.003 386.032 42.8801 30.9705 167.992 140.259 160.516 51.494 210.331 101.027 175.702 88.2468 87.4549 28.3528 19.4783 213.687 159.464 69.6051 109.022 20.3187 98.5563 66.3824 61.137 43.7388 17.3982 54.2222 42.1567 168.71 39.232 42.5859 6.86478 22.0351 18.1017 43.4716 41.0268 26.5704 61.3797 16.9909 146.675 64.6198 48.2303 116.879 114.185 16.3852 97.7994 20.4072 17.095 6.31499 88.7036 56.8522 39.6743 35.5628 11.9529 35.7376
internal_count=4841 884 3957 509 250 3448 1560 1888 1710 1579 178 131 686 577 655 210 859 418 720 362 358 116 80 874 650 307 445 83 408 273 251 180 71 224 173 688 159 175 29 90 74 180 170 108 259 70 598 264 197 475 464 66 398 85 71 26 362 233 162 145 49 147
is_linear=0
shrinkage=0.05


Tree=14
num_leaves=63
num_cat=0
split_feature=1 6 7 6 3 1 7 4 6 3 1 1 6 7 3 4 8 6 4 2 10 8 1 8 6 7 7 9 4 8 6 9 7 2 2 7 4 3 5 8 10 10 6 10 4 2 1 2 7 9 2 3 10 3 2 2 9 4 4 7 4 1
split_gain=31.2551 15.1241 14.5974 13.1119 11.1774 10.0666 10.1358 10.0581 10.0268 19.7814 14.2515 9.16019 9.03233 14.5663 11.0301 8.97132 8.59411 8.56742 9.74276 8.44908 8.36901 8.15799 9.9307 8.03735 7.61365 7.37762 7.08785 7.00407 6.70446 8.81172 6.91037 6.69695 6.46188 6.96679 6.35047 6.24349 6.14206 5.94343 5.92546 7.58292 5.82078 5.80784 5.78803 7.04232 5.75406 7.61374 5.68702 8.57934 8.29825 6.36514 5.55678 6.17904 6.33742 6.1305 6.15781 8.21188 5.73313 5.55074 5.52821 5.51193 8.25961 6.94555
threshold=0.045983086680761058 3.7500000000000004 0.032795698924731158 -6.7499999999999991 -0.13457147874956013 0.10300618921308571 0.30384615384615393 9.3791891891891925 -2.2499999999999996 0.11213965736992022 0.25657894736842107 0.40833333333333338 1.0000000180025095e-35 0.064172958133150257 -0.24154543791029051 10.955389718076287 0.4806443556443557 -7.7499999999999991 12.23682588597843 0.23368794326241135 10.360846920289857 0.30368444846292947 0.22902097902097898 0.69716905901116444 3.7500000000000004 0.15504807692307693 0.043015726179463455 0.056328481049170855 12.90205479452055 0.60903532608695665 11.250000000000002 0.38234981826083564 0.13100686498855832 0.68790584415584421 0.56030303030303041 0.036038961038961002 10.770691333982475 -0.29816050979733871 1.0000000180025095e-35 0.71199280945043675 15.33809523809524 10.20809943865277 -7.7499999999999991 10.587221095334689 11.914343360234778 0.36055555555555557 0.13484848484848483 0.40450861195542048 0.11696306429548561 -0.20129870129870128 0.32910783055198972 0.69309434208168252 11.17425810904072 -1.0086206896551724 0.40765107212475632 0.38516483516483518 -0.24909143200773884 10.843443627450982 6.1000000000000005 0.14495798319327727 9.0734501347708925 0.22474747474747472
decision_type=2 2 2 2 2 2 2 2 2 2 2 2 2 2 2 2 2 2 2 2 2 2 2 2 2 2 2 2 2 2 2 2 2 2 2 2 2 2 2 2 2 2 2 2 2 2 2 2 2 2 2 2 2 2 2 2 2 2 2 2 2 2
left_child=1 26 3 4 -2 12 8 -6 9 20 19 24 25 -14 16 57 44 18 -13 -10 41 22 -22 58 38 -4 36 35 29 -26 -30 34 -21 50 -16 -17 -1 -29 -8 -40 -25 -7 -23 -44 45 -15 48 -48 -11 -49 -34 53 -53 56 55 -55 -52 -3 -19 60 -45 -62
right_child=2 15 5 -5 7 6 11 -9 10 46 -12 17 13 14 31 27 -18 23 -20 32 21 42 -24 40 28 -27 -28 37 30 -31 -32 -33 33 -35 -36 -37 -38 -39 39 -41 -42 -43 43 59 -46 -47 47 49 -50 -51 51 52 -54 54 -56 -57 -58 -59 -60 -61 61 -63
leaf_value=-0.052331139408791999 -0.031005465766071445 0.0048107764100152172 -0.014274925048606765 0.036406123930959523 -0.072962512644956332 -0.021784663648790597 -0.058474010178928483 0.023401795671257306 -0.075427144170865851 0.012205163533692425 0.05162475228617467 -0.088177044578753888 0.048441625315104549 0.069256578143562272 -0.001639061664760555 0.066135179004424602 0.02426530712986745 -0.039175085783013708 0.013757073502657077 0.025344594138313616 -0.057158259606416718 -0.013046931501607401 0.0090377085509243602 0.0082185509670600759 0.048431205811919731 -0.058871099248255433 -0.047169946477609449 0.010126837862967359 -0.052286140838702248 -0.0066065386950621436 0.031674101684395377 -0.041146294005385727 0.053360447019837588 -0.060987703846719948 -0.041379847508333956 -0.0088520913309427032 0.0067213546536030004 -0.040241252156974917 -0.033476162021969826 0.029517962321270932 -0.070813696741301904 -0.086201764112195434 0.069037898073256623 -0.070439594071442332 -0.075596613118468881 -0.053375455357156466 -0.049033401925786341 0.012811228005720227 -0.073058677072937436 0.04169678247285985 -0.073815016032437952 0.01659485999442372 -0.057608152996755181 0.032984463951759191 0.021531562436348971 -0.073130631413464361 0.016191251444596277 0.070495851006339968 0.036992746119363935 -0.014954436389968071 0.015020812501231415 0.073671444651833243
